{"learner":{"attributes":{"best_iteration":"1999","best_ntree_limit":"2000","scikit_learn":"{\"use_label_encoder\": null, \"n_estimators\": 2000, \"objective\": \"binary:logistic\", \"max_depth\": 5, \"max_leaves\": null, \"max_bin\": null, \"grow_policy\": null, \"learning_rate\": 0.01, \"verbosity\": null, \"booster\": null, \"tree_method\": null, \"gamma\": 1, \"min_child_weight\": null, \"max_delta_step\": null, \"subsample\": 0.8, \"sampling_method\": null, \"colsample_bytree\": 1, \"colsample_bylevel\": null, \"colsample_bynode\": null, \"reg_alpha\": null, \"reg_lambda\": null, \"scale_pos_weight\": null, \"base_score\": null, \"missing\": NaN, \"num_parallel_tree\": null, \"random_state\": 42, \"n_jobs\": null, \"monotone_constraints\": null, \"interaction_constraints\": null, \"importance_type\": null, \"gpu_id\": null, \"validate_parameters\": null, \"predictor\": null, \"enable_categorical\": false, \"feature_types\": null, \"max_cat_to_onehot\": null, \"max_cat_threshold\": null, \"eval_metric\": null, \"early_stopping_rounds\": null, \"callbacks\": null, \"classes_\": [0, 1], \"n_classes_\": 2, \"_estimator_type\": \"classifier\"}"},"feature_names":["Age","Sex","Ethnicity","Region","Fever","Cough","Sore_throat","Shortness_of_breath","Respiratory_discomfort","SPO2","Dihareea","Vomitting","Cardiovascular","Asthma","Diabetis","Pulmonary","Immunosuppresion","Obesity","Liver","Neurologic","Renal"],"feature_types":["int","int","int","int","int","int","int","int","int","int","int","int","int","int","int","int","int","int","int","int","int"],"gradient_booster":{"model":{"gbtree_model_param":{"num_parallel_tree":"1","num_trees":"2000","size_leaf_vector":"0"},"tree_info":[0,0,0,0,0,0,0,0,0,0,0,0,0,0,0,0,0,0,0,0,0,0,0,0,0,0,0,0,0,0,0,0,0,0,0,0,0,0,0,0,0,0,0,0,0,0,0,0,0,0,0,0,0,0,0,0,0,0,0,0,0,0,0,0,0,0,0,0,0,0,0,0,0,0,0,0,0,0,0,0,0,0,0,0,0,0,0,0,0,0,0,0,0,0,0,0,0,0,0,0,0,0,0,0,0,0,0,0,0,0,0,0,0,0,0,0,0,0,0,0,0,0,0,0,0,0,0,0,0,0,0,0,0,0,0,0,0,0,0,0,0,0,0,0,0,0,0,0,0,0,0,0,0,0,0,0,0,0,0,0,0,0,0,0,0,0,0,0,0,0,0,0,0,0,0,0,0,0,0,0,0,0,0,0,0,0,0,0,0,0,0,0,0,0,0,0,0,0,0,0,0,0,0,0,0,0,0,0,0,0,0,0,0,0,0,0,0,0,0,0,0,0,0,0,0,0,0,0,0,0,0,0,0,0,0,0,0,0,0,0,0,0,0,0,0,0,0,0,0,0,0,0,0,0,0,0,0,0,0,0,0,0,0,0,0,0,0,0,0,0,0,0,0,0,0,0,0,0,0,0,0,0,0,0,0,0,0,0,0,0,0,0,0,0,0,0,0,0,0,0,0,0,0,0,0,0,0,0,0,0,0,0,0,0,0,0,0,0,0,0,0,0,0,0,0,0,0,0,0,0,0,0,0,0,0,0,0,0,0,0,0,0,0,0,0,0,0,0,0,0,0,0,0,0,0,0,0,0,0,0,0,0,0,0,0,0,0,0,0,0,0,0,0,0,0,0,0,0,0,0,0,0,0,0,0,0,0,0,0,0,0,0,0,0,0,0,0,0,0,0,0,0,0,0,0,0,0,0,0,0,0,0,0,0,0,0,0,0,0,0,0,0,0,0,0,0,0,0,0,0,0,0,0,0,0,0,0,0,0,0,0,0,0,0,0,0,0,0,0,0,0,0,0,0,0,0,0,0,0,0,0,0,0,0,0,0,0,0,0,0,0,0,0,0,0,0,0,0,0,0,0,0,0,0,0,0,0,0,0,0,0,0,0,0,0,0,0,0,0,0,0,0,0,0,0,0,0,0,0,0,0,0,0,0,0,0,0,0,0,0,0,0,0,0,0,0,0,0,0,0,0,0,0,0,0,0,0,0,0,0,0,0,0,0,0,0,0,0,0,0,0,0,0,0,0,0,0,0,0,0,0,0,0,0,0,0,0,0,0,0,0,0,0,0,0,0,0,0,0,0,0,0,0,0,0,0,0,0,0,0,0,0,0,0,0,0,0,0,0,0,0,0,0,0,0,0,0,0,0,0,0,0,0,0,0,0,0,0,0,0,0,0,0,0,0,0,0,0,0,0,0,0,0,0,0,0,0,0,0,0,0,0,0,0,0,0,0,0,0,0,0,0,0,0,0,0,0,0,0,0,0,0,0,0,0,0,0,0,0,0,0,0,0,0,0,0,0,0,0,0,0,0,0,0,0,0,0,0,0,0,0,0,0,0,0,0,0,0,0,0,0,0,0,0,0,0,0,0,0,0,0,0,0,0,0,0,0,0,0,0,0,0,0,0,0,0,0,0,0,0,0,0,0,0,0,0,0,0,0,0,0,0,0,0,0,0,0,0,0,0,0,0,0,0,0,0,0,0,0,0,0,0,0,0,0,0,0,0,0,0,0,0,0,0,0,0,0,0,0,0,0,0,0,0,0,0,0,0,0,0,0,0,0,0,0,0,0,0,0,0,0,0,0,0,0,0,0,0,0,0,0,0,0,0,0,0,0,0,0,0,0,0,0,0,0,0,0,0,0,0,0,0,0,0,0,0,0,0,0,0,0,0,0,0,0,0,0,0,0,0,0,0,0,0,0,0,0,0,0,0,0,0,0,0,0,0,0,0,0,0,0,0,0,0,0,0,0,0,0,0,0,0,0,0,0,0,0,0,0,0,0,0,0,0,0,0,0,0,0,0,0,0,0,0,0,0,0,0,0,0,0,0,0,0,0,0,0,0,0,0,0,0,0,0,0,0,0,0,0,0,0,0,0,0,0,0,0,0,0,0,0,0,0,0,0,0,0,0,0,0,0,0,0,0,0,0,0,0,0,0,0,0,0,0,0,0,0,0,0,0,0,0,0,0,0,0,0,0,0,0,0,0,0,0,0,0,0,0,0,0,0,0,0,0,0,0,0,0,0,0,0,0,0,0,0,0,0,0,0,0,0,0,0,0,0,0,0,0,0,0,0,0,0,0,0,0,0,0,0,0,0,0,0,0,0,0,0,0,0,0,0,0,0,0,0,0,0,0,0,0,0,0,0,0,0,0,0,0,0,0,0,0,0,0,0,0,0,0,0,0,0,0,0,0,0,0,0,0,0,0,0,0,0,0,0,0,0,0,0,0,0,0,0,0,0,0,0,0,0,0,0,0,0,0,0,0,0,0,0,0,0,0,0,0,0,0,0,0,0,0,0,0,0,0,0,0,0,0,0,0,0,0,0,0,0,0,0,0,0,0,0,0,0,0,0,0,0,0,0,0,0,0,0,0,0,0,0,0,0,0,0,0,0,0,0,0,0,0,0,0,0,0,0,0,0,0,0,0,0,0,0,0,0,0,0,0,0,0,0,0,0,0,0,0,0,0,0,0,0,0,0,0,0,0,0,0,0,0,0,0,0,0,0,0,0,0,0,0,0,0,0,0,0,0,0,0,0,0,0,0,0,0,0,0,0,0,0,0,0,0,0,0,0,0,0,0,0,0,0,0,0,0,0,0,0,0,0,0,0,0,0,0,0,0,0,0,0,0,0,0,0,0,0,0,0,0,0,0,0,0,0,0,0,0,0,0,0,0,0,0,0,0,0,0,0,0,0,0,0,0,0,0,0,0,0,0,0,0,0,0,0,0,0,0,0,0,0,0,0,0,0,0,0,0,0,0,0,0,0,0,0,0,0,0,0,0,0,0,0,0,0,0,0,0,0,0,0,0,0,0,0,0,0,0,0,0,0,0,0,0,0,0,0,0,0,0,0,0,0,0,0,0,0,0,0,0,0,0,0,0,0,0,0,0,0,0,0,0,0,0,0,0,0,0,0,0,0,0,0,0,0,0,0,0,0,0,0,0,0,0,0,0,0,0,0,0,0,0,0,0,0,0,0,0,0,0,0,0,0,0,0,0,0,0,0,0,0,0,0,0,0,0,0,0,0,0,0,0,0,0,0,0,0,0,0,0,0,0,0,0,0,0,0,0,0,0,0,0,0,0,0,0,0,0,0,0,0,0,0,0,0,0,0,0,0,0,0,0,0,0,0,0,0,0,0,0,0,0,0,0,0,0,0,0,0,0,0,0,0,0,0,0,0,0,0,0,0,0,0,0,0,0,0,0,0,0,0,0,0,0,0,0,0,0,0,0,0,0,0,0,0,0,0,0,0,0,0,0,0,0,0,0,0,0,0,0,0,0,0,0,0,0,0,0,0,0,0,0,0,0,0,0,0,0,0,0,0,0,0,0,0,0,0,0,0,0,0,0,0,0,0,0,0,0,0,0,0,0,0,0,0,0,0,0,0,0,0,0,0,0,0,0,0,0,0,0,0,0,0,0,0,0,0,0,0,0,0,0,0,0,0,0,0,0,0,0,0,0,0,0,0,0,0,0,0,0,0,0,0,0,0,0,0,0,0,0,0,0,0,0,0,0,0,0,0,0,0,0,0,0,0,0,0,0,0,0,0,0,0,0,0,0,0,0,0,0,0,0,0,0,0,0,0,0,0,0,0,0,0,0,0,0,0,0,0,0,0,0,0,0,0,0,0,0,0,0,0,0,0,0,0,0,0,0,0,0,0,0,0,0,0,0,0,0,0,0,0,0,0,0,0,0,0,0,0,0,0,0,0,0,0,0,0,0,0,0,0,0,0,0,0,0,0,0,0,0,0,0,0,0,0,0,0,0,0,0,0,0,0,0,0,0,0,0,0,0,0,0,0,0,0,0,0,0,0,0,0,0,0,0,0,0,0,0,0,0,0,0,0,0,0,0,0,0,0,0,0,0,0,0,0,0,0,0,0,0,0,0,0,0,0,0,0,0,0,0,0,0,0,0,0,0,0,0,0,0,0,0,0,0,0,0,0,0,0,0,0,0,0,0,0,0,0,0,0,0,0,0,0,0,0,0,0,0,0,0,0,0,0,0,0,0,0,0,0,0,0,0,0,0,0,0,0,0,0,0,0,0,0,0,0,0,0,0,0,0,0,0,0,0,0,0,0,0,0,0,0,0,0,0,0,0,0,0,0,0,0,0,0,0,0,0,0,0,0,0,0,0,0,0,0,0,0,0,0,0,0,0,0,0,0,0,0,0,0,0,0,0,0,0,0,0,0,0,0,0,0,0,0,0,0,0,0,0,0,0,0,0,0,0,0,0,0,0,0,0,0,0,0,0,0,0,0,0,0,0,0,0,0,0],"trees":[{"base_weights":[-1.4465408E0,-1.6347439E0,1.375E0,-1.8157182E0,-7.619048E-1,-0E0,1.5714285E0,4E-1,-1.3103448E0,8.8E-1,-1.1111112E0,-1.4814814E0,5E-1,-0E0,1.0476191E0],"categories":[],"categories_nodes":[],"categories_segments":[],"categories_sizes":[],"default_left":[1,1,1,0,1,0,0,1,1,1,0,0,0,1,1],"id":0,"left_children":[1,3,5,-1,7,-1,-1,9,11,-1,-1,-1,-1,-1,-1],"loss_changes":[6.557219E1,1.6347778E1,2.160715E0,0E0,1.39060755E1,0E0,0E0,6.417778E0,5.233078E0,9.2190456E-1,0E0,0E0,0E0,0E0,0E0],"parents":[2147483647,0,0,1,1,2,2,4,4,7,7,8,8,9,9],"right_children":[2,4,6,-1,8,-1,-1,10,12,-1,-1,-1,-1,-1,-1],"split_conditions":[5E-1,6.65E1,4.55E1,-1.8157182E-2,5E-1,-0E0,1.5714286E-2,8.25E1,8.35E1,8.8E-3,-1.1111111E-2,-1.4814814E-2,5E-3,-0E0,1.0476191E-2],"split_indices":[14,0,0,0,1,0,0,0,0,0,0,0,0,2147483647,2147483647],"split_type":[0,0,0,0,0,0,0,0,0,0,0,0,0,0,0],"sum_hessian":[1.1825E2,1.1125E2,7E0,9.125E1,2E1,1E0,6E0,6.5E0,1.35E1,5.25E0,1.25E0,1.25E1,1E0,1E0,4.25E0],"tree_param":{"num_deleted":"2","num_feature":"21","num_nodes":"15","size_leaf_vector":"0"}},{"base_weights":[-1.3729932E0,-1.5699723E0,1.5033174E0,-6.080615E-1,-1.759988E0,-0E0,1.7106825E0,-1.2425425E0,5.7556033E-1,-5.606188E-1,-1.7865579E0,-1.4254994E0,-3.8670856E-1,8.726222E-1,-3.9732212E-1,-1.1010746E0,2.2900073E-1,4.1091427E-1,-1.1010746E0,2.1733566E-1,9.9297535E-1],"categories":[],"categories_nodes":[],"categories_segments":[],"categories_sizes":[],"default_left":[1,1,1,1,1,0,0,1,1,1,0,0,1,1,0,0,0,0,0,1,1],"id":1,"left_children":[1,3,5,7,9,-1,-1,11,13,15,-1,-1,17,-1,-1,-1,-1,-1,-1,-1,-1],"loss_changes":[7.0768845E1,1.9673615E1,2.5716972E0,1.5921732E1,2.0016785E0,0E0,0E0,1.5624294E0,2.5864694E0,1.7457131E0,0E0,0E0,2.5890477E0,2.7709436E-1,0E0,0E0,0E0,0E0,0E0,0E0,0E0],"parents":[2147483647,0,0,1,1,2,2,3,3,4,4,7,7,8,8,9,9,12,12,13,13],"right_children":[2,4,6,8,10,-1,-1,12,14,16,-1,-1,18,-1,-1,-1,-1,-1,-1,-1,-1],"split_conditions":[5E-1,5E-1,4.55E1,6.6E1,5E-1,-0E0,1.7106825E-2,5.95E1,8.15E1,4.6E1,-1.786558E-2,-1.4254994E-2,6.45E1,8.7262215E-3,-3.973221E-3,-1.1010746E-2,2.2900072E-3,4.109143E-3,-1.1010746E-2,2.1733565E-3,9.929753E-3],"split_indices":[14,1,0,0,5,0,0,0,0,0,0,0,0,0,0,0,0,0,0,2147483647,2147483647],"split_type":[0,0,0,0,0,0,0,0,0,0,0,0,0,0,0,0,0,0,0,0,0],"sum_hessian":[1.1974115E2,1.1249154E2,7.2496142E0,1.9248827E1,9.324271E1,1E0,6.2496142E0,1.2498969E1,6.749858E0,2.4998267E0,9.074288E1,9.749196E0,2.749773E0,5.2498984E0,1.4999593E0,1.2498969E0,1.2499297E0,1.4998763E0,1.2498969E0,1.2499758E0,3.9999225E0],"tree_param":{"num_deleted":"2","num_feature":"21","num_nodes":"21","size_leaf_vector":"0"}},{"base_weights":[-1.3883725E0,-1.5782286E0,1.1969477E0,-1.7359067E0,-5.2944535E-1,-4.065855E-1,1.5719244E0,-1.2422942E0,-1.7939636E0,9.942588E-1,-1.278472E0,-4.816745E-1,-1.4097586E0,1.1441278E0,2.3592104E-1,-2.0826001E-1,-1.3886626E0,-1.0932654E0,1.9387E-1],"categories":[],"categories_nodes":[],"categories_segments":[],"categories_sizes":[],"default_left":[1,1,1,1,1,0,0,1,0,1,1,1,0,1,1,0,0,0,0],"id":2,"left_children":[1,3,5,7,9,-1,-1,11,-1,-1,15,17,-1,-1,-1,-1,-1,-1,-1],"loss_changes":[6.2367752E1,1.81344E1,6.0495787E0,6.2905884E-1,2.0099176E1,0E0,0E0,1.071907E0,0E0,4.1192627E-1,1.0666771E0,1.8643243E0,0E0,0E0,0E0,0E0,0E0,0E0,0E0],"parents":[2147483647,0,0,1,1,2,2,3,3,4,4,7,7,9,9,10,10,11,11],"right_children":[2,4,6,8,10,-1,-1,12,-1,-1,16,18,-1,-1,-1,-1,-1,-1,-1],"split_conditions":[5E-1,7.3E1,5.05E1,5E-1,8.15E1,-4.065855E-3,1.5719244E-2,5E-1,-1.7939635E-2,9.942588E-3,5E-1,4.35E1,-1.4097585E-2,1.1441278E-2,2.3592103E-3,-2.0826E-3,-1.3886626E-2,-1.0932654E-2,1.9386999E-3],"split_indices":[14,0,0,4,0,0,0,1,0,1,9,0,0,2147483647,2147483647,0,0,0,0],"split_type":[0,0,0,0,0,0,0,0,0,0,0,0,0,0,0,0,0,0,0],"sum_hessian":[1.2221507E2,1.1421696E2,7.9981155E0,9.871987E1,1.5497088E1,1.4998654E0,6.49825E0,1.2746252E1,8.597362E1,4.999492E0,1.0497597E1,2.9993844E0,9.746867E0,3.749712E0,1.2497802E0,1.2497317E0,9.247865E0,1.2496717E0,1.7497127E0],"tree_param":{"num_deleted":"2","num_feature":"21","num_nodes":"19","size_leaf_vector":"0"}},{"base_weights":[-1.372841E0,-1.5463964E0,1.1414894E0,-5.934908E-1,-1.7313408E0,-4.0414166E-1,1.5306033E0,-8.7728906E-1,1.3303047E0,-4.4031513E-1,-1.7576362E0,-1.2664315E0,7.220822E-2,-7.05406E-1,-1.4175923E0,5.840659E-1,-1.0973343E0],"categories":[],"categories_nodes":[],"categories_segments":[],"categories_sizes":[],"default_left":[1,1,1,1,1,0,0,1,0,0,0,1,1,1,1,0,0],"id":3,"left_children":[1,3,5,7,9,-1,-1,11,-1,-1,-1,-1,15,-1,-1,-1,-1],"loss_changes":[5.5297424E1,1.9270844E1,5.7285156E0,1.2218853E1,2.4829102E0,0E0,0E0,6.8319798E0,0E0,0E0,0E0,1.01940155E-1,4.3819585E0,0E0,0E0,0E0,0E0],"parents":[2147483647,0,0,1,1,2,2,3,3,4,4,7,7,11,11,12,12],"right_children":[2,4,6,8,10,-1,-1,12,-1,-1,-1,-1,16,-1,-1,-1,-1],"split_conditions":[5E-1,5E-1,5.05E1,5E-1,5E-1,-4.0414166E-3,1.5306032E-2,6.65E1,1.3303047E-2,-4.403151E-3,-1.7576361E-2,-1.2664314E-2,8.15E1,-7.0540598E-3,-1.4175923E-2,5.840659E-3,-1.0973343E-2],"split_indices":[14,1,0,15,5,0,0,0,0,0,0,9,0,2147483647,2147483647,0,0],"split_type":[0,0,0,0,0,0,0,0,0,0,0,0,0,0,0,0,0],"sum_hessian":[1.2167467E2,1.1417831E2,7.49636E0,1.9242495E1,9.4935814E1,1.4998926E0,5.996467E0,1.7242815E1,1.9996798E0,2.2492535E0,9.268656E1,1.1993572E1,5.249243E0,3.748351E0,8.245221E0,3.9994576E0,1.2497851E0],"tree_param":{"num_deleted":"2","num_feature":"21","num_nodes":"17","size_leaf_vector":"0"}},{"base_weights":[-1.366859E0,-1.5358765E0,1.2064481E0,-6.8016154E-1,-1.7280388E0,-1.6997253E-3,1.4857364E0,-1.3973666E0,2.3330908E-1,-5.459542E-1,-1.7549018E0,-1.9107303E-1,-1.5118605E0,-1.05838016E-1,1.2582419E0,-1.0828992E0,2.3350723E-1,5.1965E-1,-6.5166235E-1],"categories":[],"categories_nodes":[],"categories_segments":[],"categories_sizes":[],"default_left":[1,1,1,1,1,0,0,1,1,1,0,0,0,1,0,0,0,0,0],"id":4,"left_children":[1,3,5,7,9,-1,-1,11,13,15,-1,-1,-1,17,-1,-1,-1,-1,-1],"loss_changes":[5.4315247E1,1.7509003E1,2.6999779E0,1.50577965E1,1.967804E0,0E0,0E0,1.4706059E0,3.8688068E0,1.7172836E0,0E0,0E0,0E0,3.4103754E0,0E0,0E0,0E0,0E0,0E0],"parents":[2147483647,0,0,1,1,2,2,3,3,4,4,7,7,8,8,9,9,13,13],"right_children":[2,4,6,8,10,-1,-1,12,14,16,-1,-1,-1,18,-1,-1,-1,-1,-1],"split_conditions":[5E-1,5E-1,5.05E1,5.95E1,5E-1,-1.6997252E-5,1.4857363E-2,5E-1,5E-1,4.6E1,-1.7549017E-2,-1.9107303E-3,-1.51186045E-2,5E-1,1.25824185E-2,-1.0828992E-2,2.3350723E-3,5.1964996E-3,-6.5166233E-3],"split_indices":[14,1,0,0,5,0,0,5,15,0,0,0,0,9,0,0,0,0,0],"split_type":[0,0,0,0,0,0,0,0,0,0,0,0,0,0,0,0,0,0,0],"sum_hessian":[1.1962123E2,1.1262692E2,6.994306E0,2.1486261E1,9.114066E1,1.4999073E0,5.4943986E0,1.1739411E1,9.746851E0,2.498975E0,8.8641685E1,1.2489958E0,1.0490416E1,7.997304E0,1.7495465E0,1.2491713E0,1.2498039E0,3.7490406E0,4.2482634E0],"tree_param":{"num_deleted":"0","num_feature":"21","num_nodes":"19","size_leaf_vector":"0"}},{"base_weights":[-1.2980074E0,-1.5034329E0,1.2253835E0,-1.6998866E0,-4.3759295E-1,-3.9841688E-1,1.569369E0,-1.2132002E0,-1.7520683E0,1.120993E0,-1.24392E0,-4.6518117E-1,-1.4005647E0,2.1767637E-1,1.2794908E0,-1.424712E0,2.5258073E-1,-1.1607615E0,4.1623247E-1,-5.246756E-1,-1.5298349E0],"categories":[],"categories_nodes":[],"categories_segments":[],"categories_sizes":[],"default_left":[1,1,1,1,1,0,0,1,0,1,1,1,0,1,1,1,0,0,0,1,1],"id":5,"left_children":[1,3,5,7,9,-1,-1,11,-1,-1,15,17,-1,-1,-1,-1,-1,-1,-1,-1,-1],"loss_changes":[6.5108154E1,2.298172E1,6.0649614E0,2.9537964E-1,2.5248703E1,0E0,0E0,1.0979404E0,0E0,7.233753E-1,3.872612E0,2.9340925E0,0E0,0E0,0E0,3.075981E-1,0E0,0E0,0E0,0E0,0E0],"parents":[2147483647,0,0,1,1,2,2,3,3,4,4,7,7,9,9,10,10,11,11,15,15],"right_children":[2,4,6,8,10,-1,-1,12,-1,-1,16,18,-1,-1,-1,-1,-1,-1,-1,-1,-1],"split_conditions":[5E-1,7.25E1,5.05E1,5E-1,8.15E1,-3.9841686E-3,1.5693689E-2,5E-1,-1.7520683E-2,1.120993E-2,5E-1,4.35E1,-1.4005646E-2,2.1767637E-3,1.2794908E-2,-1.4247119E-2,2.5258074E-3,-1.1607614E-2,4.1623246E-3,-5.246756E-3,-1.5298348E-2],"split_indices":[14,0,0,4,0,0,0,1,0,2,12,0,0,2147483647,2147483647,1,0,0,0,2147483647,2147483647],"split_type":[0,0,0,0,0,0,0,0,0,0,0,0,0,0,0,0,0,0,0,0,0],"sum_hessian":[1.2104791E2,1.1230918E2,8.738726E0,9.432796E1,1.798123E1,1.4999412E0,7.2387843E0,1.1482554E1,8.28454E1,5.99772E0,1.198351E1,2.9976673E0,8.484887E0,1.2495593E0,4.7481604E0,1.07346325E1,1.2488779E0,1.4983171E0,1.4993502E0,1.7492304E0,8.985402E0],"tree_param":{"num_deleted":"4","num_feature":"21","num_nodes":"21","size_leaf_vector":"0"}},{"base_weights":[-1.2788996E0,-1.4833254E0,1.3883779E0,-6.522222E-1,-1.6498723E0,2.1353409E-1,1.5454715E0,-1.210525E0,4.393148E-1,-1.0255349E0,-1.6955974E0,-1.3258232E0,-4.214282E-1,9.230568E-1,-6.3443804E-1,-1.141352E0,-1.7063737E-1,1.2999966E0,-2.4099839E-1,-1.6330867E-1,-1.304137E0],"categories":[],"categories_nodes":[],"categories_segments":[],"categories_sizes":[],"default_left":[1,1,1,1,1,0,0,1,1,1,0,1,1,1,0,1,0,0,0,0,0],"id":6,"left_children":[1,3,5,7,9,-1,-1,-1,13,15,-1,-1,-1,17,-1,19,-1,-1,-1,-1,-1],"loss_changes":[6.883061E1,1.4734467E1,1.3741875E0,1.3160048E1,9.5892334E-1,0E0,0E0,7.128258E-1,4.609075E0,6.9430065E-1,0E0,0E0,0E0,2.8352046E0,0E0,1.0180702E0,0E0,0E0,0E0,0E0,0E0],"parents":[2147483647,0,0,1,1,2,2,3,3,4,4,7,7,8,8,9,9,13,13,15,15],"right_children":[2,4,6,8,10,-1,-1,-1,14,16,-1,-1,-1,18,-1,20,-1,-1,-1,-1,-1],"split_conditions":[5E-1,5E-1,5.25E1,6.65E1,5E-1,2.1353408E-3,1.5454715E-2,-1.210525E-2,8.15E1,5E-1,-1.6955974E-2,-1.3258232E-2,-4.214282E-3,5E-1,-6.3443803E-3,3.65E1,-1.7063736E-3,1.2999966E-2,-2.409984E-3,-1.6330866E-3,-1.304137E-2],"split_indices":[14,1,0,0,2,0,0,0,0,10,0,2147483647,2147483647,6,0,0,0,0,0,0,0],"split_type":[0,0,0,0,0,0,0,0,0,0,0,0,0,0,0,0,0,0,0,0,0],"sum_hessian":[1.2145738E2,1.13223564E2,8.233818E0,1.9722145E1,9.350142E1,1.2493896E0,6.984429E0,1.2976085E1,6.7460594E0,7.979297E0,8.5522125E1,1.0728345E1,2.2477393E0,4.7475576E0,1.9985019E0,6.73218E0,1.247117E0,3.49805E0,1.2495077E0,1.246455E0,5.485725E0],"tree_param":{"num_deleted":"2","num_feature":"21","num_nodes":"21","size_leaf_vector":"0"}},{"base_weights":[-1.3098104E0,-1.5153495E0,1.3794743E0,-6.6566414E-1,-1.6879666E0,-2.239833E-1,1.6587253E0,-1.2438403E0,6.010986E-1,-1.0634733E0,-1.7371655E0,-1.3265105E0,-1.9538401E-1,1.1902744E0,-6.30279E-1,-1.1783265E0,-1.6969796E-1,1.4553723E0,1.8980604E-1,-1.6241038E-1,-1.3364534E0],"categories":[],"categories_nodes":[],"categories_segments":[],"categories_sizes":[],"default_left":[1,1,1,1,1,0,0,1,1,1,0,0,0,1,0,1,0,0,0,0,0],"id":7,"left_children":[1,3,5,7,9,-1,-1,11,13,15,-1,-1,-1,17,-1,19,-1,-1,-1,-1,-1],"loss_changes":[6.98631E1,1.5652557E1,4.503975E0,1.6102245E1,1.0534363E0,0E0,0E0,1.0167179E0,6.0057964E0,7.725382E-1,0E0,0E0,0E0,1.1151023E0,0E0,1.1045046E0,0E0,0E0,0E0,0E0,0E0],"parents":[2147483647,0,0,1,1,2,2,3,3,4,4,7,7,8,8,9,9,13,13,15,15],"right_children":[2,4,6,8,10,-1,-1,12,14,16,-1,-1,-1,18,-1,20,-1,-1,-1,-1,-1],"split_conditions":[5E-1,5E-1,5.05E1,7.25E1,5E-1,-2.239833E-3,1.6587252E-2,5E-1,8.15E1,5E-1,-1.7371655E-2,-1.3265105E-2,-1.95384E-3,5E-1,-6.30279E-3,3.65E1,-1.6969795E-3,1.4553723E-2,1.8980604E-3,-1.6241038E-3,-1.3364534E-2],"split_indices":[14,1,0,0,2,0,0,11,0,10,0,0,0,11,0,0,0,0,0,0,0],"split_type":[0,0,0,0,0,0,0,0,0,0,0,0,0,0,0,0,0,0,0,0,0],"sum_hessian":[1.216093E2,1.1338029E2,8.229012E0,1.9964397E1,9.341589E1,1.2499161E0,6.9790955E0,1.3720279E1,6.2441177E0,8.473656E0,8.494224E1,1.2471689E1,1.24859E0,4.2459455E0,1.9981724E0,7.2266383E0,1.247017E0,2.9971006E0,1.2488445E0,1.2463459E0,5.9802923E0],"tree_param":{"num_deleted":"0","num_feature":"21","num_nodes":"21","size_leaf_vector":"0"}},{"base_weights":[-1.2949599E0,-1.4689736E0,1.2089864E0,-1.6404969E0,-5.024311E-1,7.636585E-4,1.4686463E0,-1.2335314E0,-1.7012178E0,9.276635E-1,-1.2077621E0,-1.455687E0,-6.118687E-1,1.0612551E0,1.887579E-1,-1.3875035E0,2.6604837E-1,5.35914E-2,-1.1021777E0,1.2385243E0,2.5463852E-1],"categories":[],"categories_nodes":[],"categories_segments":[],"categories_sizes":[],"default_left":[1,1,1,1,1,0,0,1,0,1,1,0,1,1,1,0,0,0,0,1,1],"id":8,"left_children":[1,3,5,7,9,-1,-1,11,-1,-1,15,-1,17,-1,-1,-1,-1,-1,-1,-1,-1],"loss_changes":[5.493454E1,1.8162277E1,2.6580896E0,2.9412842E-1,1.998504E1,0E0,0E0,1.3477745E0,0E0,4.652815E-1,3.802105E0,0E0,2.0142586E0,4.7021866E-1,0E0,0E0,0E0,0E0,0E0,0E0,0E0],"parents":[2147483647,0,0,1,1,2,2,3,3,4,4,7,7,9,9,10,10,12,12,13,13],"right_children":[2,4,6,8,10,-1,-1,12,-1,-1,16,-1,18,-1,-1,-1,-1,-1,-1,-1,-1],"split_conditions":[5E-1,7.3E1,5.05E1,5E-1,8.15E1,7.636585E-6,1.46864625E-2,5.35E1,-1.7012177E-2,9.276635E-3,5E-1,-1.455687E-2,6.45E1,1.0612551E-2,1.8875789E-3,-1.3875035E-2,2.6604836E-3,5.35914E-4,-1.1021777E-2,1.2385243E-2,2.5463852E-3],"split_indices":[14,0,0,1,0,0,0,0,0,11,12,0,0,2147483647,2147483647,0,0,0,0,2147483647,2147483647],"split_type":[0,0,0,0,0,0,0,0,0,0,0,0,0,0,0,0,0,0,0,0,0],"sum_hessian":[1.2100145E2,1.1352526E2,7.4761915E0,9.582314E1,1.770212E1,1.4999095E0,5.9762816E0,1.5208314E1,8.061482E1,5.7428937E0,1.1959227E1,1.0215962E1,4.9923525E0,4.4941196E0,1.248774E0,1.0711452E1,1.2477753E0,2.4957523E0,2.4966002E0,3.2454207E0,1.2486988E0],"tree_param":{"num_deleted":"4","num_feature":"21","num_nodes":"21","size_leaf_vector":"0"}},{"base_weights":[-1.2683169E0,-1.4370575E0,1.3900878E0,-1.5944376E0,-5.4788786E-1,2.2536251E-1,1.5801827E0,-1.6166131E0,-7.29629E-1,9.2453784E-1,-1.2721965E0,1.1741562E0,3.0799536E-2,5.5670578E-2,-1.4505107E0,1.4377569E0,1.83638E-1],"categories":[],"categories_nodes":[],"categories_segments":[],"categories_sizes":[],"default_left":[1,1,1,1,1,0,0,1,1,1,1,1,0,0,0,0,0],"id":9,"left_children":[1,3,5,-1,9,-1,-1,-1,-1,11,13,15,-1,-1,-1,-1,-1],"loss_changes":[5.6220062E1,1.5100662E1,1.3537922E0,6.703949E-1,2.1108667E1,0E0,0E0,0E0,0E0,1.4678292E0,3.1466045E0,1.1048713E0,0E0,0E0,0E0,0E0,0E0],"parents":[2147483647,0,0,1,1,2,2,3,3,4,4,9,9,10,10,11,11],"right_children":[2,4,6,-1,10,-1,-1,-1,-1,12,14,16,-1,-1,-1,-1,-1],"split_conditions":[5E-1,7.25E1,4.9E1,-1.5944375E-2,8.15E1,2.253625E-3,1.5801826E-2,-1.6166132E-2,-7.29629E-3,5E-1,5E-1,5E-1,3.0799536E-4,5.5670575E-4,-1.4505107E-2,1.4377569E-2,1.83638E-3],"split_indices":[14,0,0,16,0,0,0,2147483647,2147483647,1,9,11,0,0,0,0,0],"split_type":[0,0,0,0,0,0,0,0,0,0,0,0,0,0,0,0,0],"sum_hessian":[1.19875435E2,1.1315257E2,6.722864E0,9.546279E1,1.7689777E1,1.2499362E0,5.472928E0,9.222852E1,3.2342691E0,5.7415357E0,1.1948241E1,4.2427816E0,1.4987543E0,1.4959589E0,1.0452283E1,2.994384E0,1.2483974E0],"tree_param":{"num_deleted":"2","num_feature":"21","num_nodes":"17","size_leaf_vector":"0"}},{"base_weights":[-1.2842499E0,-1.4755144E0,1.1570109E0,-1.6229928E0,-5.946981E-1,-1.8269376E-1,1.484813E0,-1.2062126E0,-1.6769389E0,5.801883E-1,-1.1596118E0,-1.4207753E0,-4.5640373E-1,1.1352869E0,-1.2961584E-1,-1.3417814E0,2.6325285E-1,2.4223348E-1,-9.4447714E-1,3.5728598E-1,-6.132213E-1,-1.8946631E-1,-1.4674245E0],"categories":[],"categories_nodes":[],"categories_segments":[],"categories_sizes":[],"default_left":[1,1,1,1,1,0,0,1,0,1,1,0,1,0,1,1,0,0,0,0,0,0,0],"id":10,"left_children":[1,3,5,7,9,-1,-1,11,-1,13,15,-1,17,-1,19,21,-1,-1,-1,-1,-1,-1,-1],"loss_changes":[5.8893204E1,1.3845459E1,4.4251356E0,1.600647E-1,1.2573328E1,0E0,0E0,1.7146549E0,0E0,2.7036967E0,3.5781841E0,0E0,1.845504E0,0E0,1.1009221E0,1.3426037E0,0E0,0E0,0E0,0E0,0E0,0E0,0E0],"parents":[2147483647,0,0,1,1,2,2,3,3,4,4,7,7,9,9,10,10,12,12,14,14,15,15],"right_children":[2,4,6,8,10,-1,-1,12,-1,14,16,-1,18,-1,20,22,-1,-1,-1,-1,-1,-1,-1],"split_conditions":[5E-1,7.25E1,5.05E1,5E-1,5E-1,-1.8269377E-3,1.484813E-2,5.35E1,-1.6769389E-2,5E-1,5E-1,-1.4207752E-2,6.45E1,1.1352869E-2,8.1E1,8.15E1,2.6325285E-3,2.4223349E-3,-9.444771E-3,3.5728596E-3,-6.132213E-3,-1.8946631E-3,-1.4674244E-2],"split_indices":[14,0,0,1,1,0,0,0,0,9,12,0,0,0,0,0,0,0,0,0,0,0,0],"split_type":[0,0,0,0,0,0,0,0,0,0,0,0,0,0,0,0,0,0,0,0,0,0,0],"sum_hessian":[1.2147331E2,1.13014595E2,8.4587145E0,9.608426E1,1.6930338E1,1.7498536E0,6.7088614E0,1.3688505E1,8.239575E1,5.4885077E0,1.144183E1,9.9472E0,3.7413054E0,2.743517E0,2.7449906E0,1.0193713E1,1.2481165E0,1.7458946E0,1.9954109E0,1.4979917E0,1.246999E0,1.2487727E0,8.944941E0],"tree_param":{"num_deleted":"0","num_feature":"21","num_nodes":"23","size_leaf_vector":"0"}},{"base_weights":[-1.269195E0,-1.4351587E0,1.2552431E0,-5.8484983E-1,-1.610047E0,2.1003665E-1,1.4184564E0,-1.1275383E0,9.5606977E-1,-3.840768E-1,-1.6359475E0,-1.3739674E0,-2.5702685E-1,1.2914386E0,-1.7671795E-1,4.4569993E-1,-7.1855944E-1],"categories":[],"categories_nodes":[],"categories_segments":[],"categories_sizes":[],"default_left":[1,1,1,1,1,0,0,1,1,0,0,0,1,0,0,0,0],"id":11,"left_children":[1,3,5,7,9,-1,-1,11,13,-1,-1,-1,15,-1,-1,-1,-1],"loss_changes":[5.2214996E1,1.5917877E1,1.0593328E0,1.8564339E1,2.3393707E0,0E0,0E0,3.0626888E0,2.5028667E0,0E0,0E0,0E0,1.858641E0,0E0,0E0,0E0,0E0],"parents":[2147483647,0,0,1,1,2,2,3,3,4,4,7,7,8,8,12,12],"right_children":[2,4,6,8,10,-1,-1,12,14,-1,-1,-1,16,-1,-1,-1,-1],"split_conditions":[5E-1,5E-1,5.25E1,7.3E1,5E-1,2.1003664E-3,1.4184564E-2,5.9E1,8.15E1,-3.840768E-3,-1.6359475E-2,-1.3739673E-2,6.45E1,1.2914386E-2,-1.7671795E-3,4.4569992E-3,-7.185594E-3],"split_indices":[14,1,0,0,5,0,0,0,0,0,0,0,0,0,0,0,0],"split_type":[0,0,0,0,0,0,0,0,0,0,0,0,0,0,0,0,0],"sum_hessian":[1.1932866E2,1.1237247E2,6.956194E0,1.9910677E1,9.246179E1,1.2484025E0,5.7077913E0,1.4923216E1,4.9874616E0,2.240467E0,9.022132E1,1.1179982E1,3.7432334E0,3.7401216E0,1.2473397E0,1.4974815E0,2.2457519E0],"tree_param":{"num_deleted":"0","num_feature":"21","num_nodes":"17","size_leaf_vector":"0"}},{"base_weights":[-1.2298478E0,-1.3982602E0,1.1945163E0,-5.08873E-1,-1.5927892E0,-1.8286785E-1,1.5676777E0,-1.3107527E0,5.039648E-1,-2.5939456E-1,-1.6182001E0,-1.3796031E-1,-1.4238452E0,1.0952427E0,-1.4675747E-1,2.2953835E-1,1.4169332E0,5.1570493E-1,-5.4127777E-1],"categories":[],"categories_nodes":[],"categories_segments":[],"categories_sizes":[],"default_left":[1,1,1,1,1,0,0,1,1,0,0,0,0,1,1,0,0,0,0],"id":12,"left_children":[1,3,5,7,9,-1,-1,11,13,-1,-1,-1,-1,15,17,-1,-1,-1,-1],"loss_changes":[5.2959732E1,1.959105E1,4.757757E0,1.9042099E1,2.8427582E0,0E0,0E0,1.5157986E0,4.2865086E0,0E0,0E0,0E0,0E0,1.2722535E0,1.8438051E0,0E0,0E0,0E0,0E0],"parents":[2147483647,0,0,1,1,2,2,3,3,4,4,7,7,8,8,13,13,14,14],"right_children":[2,4,6,8,10,-1,-1,12,14,-1,-1,-1,-1,16,18,-1,-1,-1,-1],"split_conditions":[5E-1,5E-1,5.05E1,5.35E1,5E-1,-1.8286785E-3,1.5676778E-2,5E-1,5E-1,-2.5939455E-3,-1.6182E-2,-1.3796032E-3,-1.4238452E-2,7.15E1,5E-1,2.2953835E-3,1.4169332E-2,5.1570493E-3,-5.4127774E-3],"split_indices":[14,1,0,0,5,0,0,5,9,0,0,0,0,0,4,0,0,0,0],"split_type":[0,0,0,0,0,0,0,0,0,0,0,0,0,0,0,0,0,0,0],"sum_hessian":[1.2461928E2,1.1692045E2,7.6988235E0,2.1632494E1,9.528796E1,1.749853E0,5.9489703E0,1.1909452E1,9.7230425E0,1.9915723E0,9.329639E1,1.2426629E0,1.0666789E1,4.7362947E0,4.9867473E0,1.7473965E0,2.9888985E0,1.7466589E0,3.2400885E0],"tree_param":{"num_deleted":"0","num_feature":"21","num_nodes":"19","size_leaf_vector":"0"}},{"base_weights":[-1.2259557E0,-1.4010636E0,1.1747876E0,-5.344275E-1,-1.5907078E0,-2.209921E-1,1.4391552E0,-1.0923623E0,5.068392E-1,-3.7972713E-1,-1.6168553E0,-1.2448902E0,-3.2508793E-1,8.497314E-1,-4.8744777E-1,-1.3720387E-1,-1.3638673E0,4.483966E-1,-1.0407739E0,2.2412415E-1,9.560613E-1],"categories":[],"categories_nodes":[],"categories_segments":[],"categories_sizes":[],"default_left":[1,1,1,1,1,0,0,1,1,0,0,1,1,1,0,0,0,0,0,1,1],"id":13,"left_children":[1,3,5,7,9,-1,-1,11,13,-1,-1,15,17,-1,-1,-1,-1,-1,-1,-1,-1],"loss_changes":[5.1989166E1,1.7568726E1,3.5227451E0,1.31179285E1,2.2814636E0,0E0,0E0,1.2803707E0,3.219499E0,0E0,0E0,1.3491917E0,2.5376427E0,2.1696758E-1,0E0,0E0,0E0,0E0,0E0,0E0,0E0],"parents":[2147483647,0,0,1,1,2,2,3,3,4,4,7,7,8,8,11,11,12,12,13,13],"right_children":[2,4,6,8,10,-1,-1,12,14,-1,-1,16,18,-1,-1,-1,-1,-1,-1,-1,-1],"split_conditions":[5E-1,5E-1,5.05E1,6.65E1,5E-1,-2.209921E-3,1.4391552E-2,5.35E1,8.15E1,-3.797271E-3,-1.6168552E-2,5E-1,6.45E1,8.497314E-3,-4.8744776E-3,-1.3720387E-3,-1.3638672E-2,4.4839657E-3,-1.0407738E-2,2.2412415E-3,9.560613E-3],"split_indices":[14,1,0,0,5,0,0,0,0,0,0,5,0,0,0,0,0,0,0,2147483647,2147483647],"split_type":[0,0,0,0,0,0,0,0,0,0,0,0,0,0,0,0,0,0,0,0,0],"sum_hessian":[1.1875388E2,1.1106902E2,7.68486E0,2.0626795E1,9.044222E1,1.2498909E0,6.4349694E0,1.33984995E1,7.228295E0,2.2396271E0,8.82026E1,1.0657408E1,2.741091E0,5.4828515E0,1.7454432E0,1.2425317E0,9.414877E0,1.4968398E0,1.2442513E0,1.2479833E0,4.2348685E0],"tree_param":{"num_deleted":"2","num_feature":"21","num_nodes":"21","size_leaf_vector":"0"}},{"base_weights":[-1.2383733E0,-1.4092677E0,1.1710006E0,-6.9296694E-1,-1.5627507E0,3.1134396E-4,1.4155664E0,-1.2317407E0,3.1891057E-1,-4.8306683E-1,-1.5868243E0,6.487202E-1,-7.317263E-1,-1.0196214E0,2.669638E-1,-2.01095E-1,8.6906475E-1],"categories":[],"categories_nodes":[],"categories_segments":[],"categories_sizes":[],"default_left":[1,1,1,1,1,0,0,0,1,1,0,1,0,0,0,0,0],"id":14,"left_children":[1,3,5,7,9,-1,-1,-1,11,13,-1,15,-1,-1,-1,-1,-1],"loss_changes":[5.2205368E1,1.1571533E1,2.4842043E0,1.2445493E1,1.6765594E0,0E0,0E0,0E0,3.4116209E0,1.6757863E0,0E0,1.481941E0,0E0,0E0,0E0,0E0,0E0],"parents":[2147483647,0,0,1,1,2,2,3,3,4,4,8,8,9,9,11,11],"right_children":[2,4,6,8,10,-1,-1,-1,12,14,-1,16,-1,-1,-1,-1,-1],"split_conditions":[5E-1,5E-1,5.05E1,6.65E1,5E-1,3.1134396E-6,1.41556645E-2,-1.2317407E-2,8.25E1,4.55E1,-1.5868243E-2,7.3E1,-7.3172627E-3,-1.0196214E-2,2.669638E-3,-2.01095E-3,8.690647E-3],"split_indices":[14,1,0,0,5,0,0,0,0,0,0,0,0,0,0,0,0],"split_type":[0,0,0,0,0,0,0,0,0,0,0,0,0,0,0,0,0],"sum_hessian":[1.2178152E2,1.1410337E2,7.6781445E0,2.110798E1,9.299539E1,1.4998636E0,6.178281E0,1.3632226E1,7.4757557E0,2.487752E0,9.050764E1,5.980834E0,1.4949216E0,1.2407258E0,1.2470261E0,1.2494338E0,4.7314E0],"tree_param":{"num_deleted":"0","num_feature":"21","num_nodes":"17","size_leaf_vector":"0"}},{"base_weights":[-1.2106545E0,-1.3781756E0,1.0739675E0,-6.016135E-1,-1.5472099E0,-1.8029985E-1,1.405284E0,-1.1546761E0,6.970401E-1,-1.3964745E0,-3.9702946E-1,1.1958545E0,-7.275341E-1,2.3983291E-1,-7.842685E-1],"categories":[],"categories_nodes":[],"categories_segments":[],"categories_sizes":[],"default_left":[1,1,1,1,0,0,0,1,1,0,1,0,0,0,0],"id":15,"left_children":[1,3,5,7,-1,-1,-1,9,11,-1,13,-1,-1,-1,-1],"loss_changes":[4.8294754E1,1.4086151E1,3.959528E0,1.6668251E1,0E0,0E0,0E0,2.3522243E0,6.0007544E0,0E0,1.4793415E0,0E0,0E0,0E0,0E0],"parents":[2147483647,0,0,1,1,2,2,3,3,7,7,8,8,10,10],"right_children":[2,4,6,8,-1,-1,-1,10,12,-1,14,-1,-1,-1,-1],"split_conditions":[5E-1,5E-1,5.05E1,7.25E1,-1.5472098E-2,-1.8029985E-3,1.405284E-2,5.35E1,8.25E1,-1.3964744E-2,6.45E1,1.1958545E-2,-7.275341E-3,2.398329E-3,-7.842685E-3],"split_indices":[14,1,0,0,0,0,0,0,0,0,0,0,0,0,0],"split_type":[0,0,0,0,0,0,0,0,0,0,0,0,0,0,0],"sum_hessian":[1.2132002E2,1.1340155E2,7.9184685E0,2.1086584E1,9.2314964E1,1.7498517E0,6.1686163E0,1.4866288E1,6.220296E0,1.0630465E1,4.2358236E0,4.72603E0,1.4942659E0,1.7456107E0,2.490213E0],"tree_param":{"num_deleted":"0","num_feature":"21","num_nodes":"15","size_leaf_vector":"0"}},{"base_weights":[-1.2155339E0,-1.392882E0,1.2564793E0,-1.55019E0,-4.891349E-1,2.000216E-1,1.4073842E0,-1.0837495E0,-1.6218346E0,7.4776894E-1,-1.1097114E0,-1.3002088E0,-3.9658865E-1,-2.1705592E-1,1.0066574E0,-1.2915521E0,3.0658364E-1,4.461785E-1,-8.535029E-1],"categories":[],"categories_nodes":[],"categories_segments":[],"categories_sizes":[],"default_left":[1,1,1,1,1,0,0,1,0,1,1,0,1,0,0,0,0,0,0],"id":16,"left_children":[1,3,5,7,9,-1,-1,11,-1,13,15,-1,17,-1,-1,-1,-1,-1,-1],"loss_changes":[5.4964157E1,1.5410309E1,1.0976667E0,1.4640808E0,1.4893724E1,0E0,0E0,1.8419933E0,0E0,1.8967268E0,3.6418304E0,0E0,2.3969855E0,0E0,0E0,0E0,0E0,0E0,0E0],"parents":[2147483647,0,0,1,1,2,2,3,3,4,4,7,7,9,9,10,10,12,12],"right_children":[2,4,6,8,10,-1,-1,12,-1,14,16,-1,18,-1,-1,-1,-1,-1,-1],"split_conditions":[5E-1,7.25E1,5.25E1,5E-1,8.15E1,2.000216E-3,1.4073841E-2,5.9E1,-1.6218346E-2,5E-1,5E-1,-1.3002087E-2,6.45E1,-2.170559E-3,1.00665735E-2,-1.291552E-2,3.0658364E-3,4.461785E-3,-8.535029E-3],"split_indices":[14,0,0,1,0,0,0,0,0,7,12,0,0,0,0,0,0,0,0],"split_type":[0,0,0,0,0,0,0,0,0,0,0,0,0,0,0,0,0,0,0],"sum_hessian":[1.2038047E2,1.1272952E2,7.6509476E0,9.5407425E1,1.7322092E1,1.2469261E0,6.4040217E0,1.48504925E1,8.055694E1,5.7187634E0,1.1603329E1,1.0614669E1,4.235824E0,1.2440448E0,4.4747186E0,1.0361123E1,1.2422057E0,1.497401E0,2.738423E0],"tree_param":{"num_deleted":"0","num_feature":"21","num_nodes":"19","size_leaf_vector":"0"}},{"base_weights":[-1.1839759E0,-1.3535876E0,1.1568428E0,-5.913858E-1,-1.509556E0,-2.1836653E-1,1.4104226E0,-1.097888E0,5.5003506E-1,-2.375994E-1,-1.5340564E0,-1.14940375E-1,-1.1774716E0,1.1737628E0,-2.4911347E-1,-1.5647975E0,-8.721917E-1,-1.3377342E0,-4.9794522E-1,3.2288295E-1,-7.212986E-1,-2.6343077E-1,-1.0014766E0],"categories":[],"categories_nodes":[],"categories_segments":[],"categories_sizes":[],"default_left":[1,1,1,1,1,0,0,1,1,0,1,0,1,0,1,1,1,1,1,0,0,1,1],"id":17,"left_children":[1,3,5,7,9,-1,-1,11,13,-1,-1,-1,-1,-1,19,-1,-1,-1,-1,-1,-1,-1,-1],"loss_changes":[5.0637222E1,1.2862396E1,3.408042E0,1.2917501E1,2.6087036E0,0E0,0E0,1.0448151E0,3.887545E0,0E0,5.359802E-1,0E0,8.419876E-1,0E0,1.3096371E0,0E0,2.4033594E-1,0E0,0E0,0E0,0E0,0E0,0E0],"parents":[2147483647,0,0,1,1,2,2,3,3,4,4,7,7,8,8,10,10,12,12,14,14,16,16],"right_children":[2,4,6,8,10,-1,-1,12,14,-1,-1,-1,-1,-1,20,-1,-1,-1,-1,-1,-1,-1,-1],"split_conditions":[5E-1,5E-1,4.9E1,7.25E1,5E-1,-2.1836653E-3,1.4104226E-2,5E-1,5E-1,-2.3759939E-3,-1.5340564E-2,-1.1494037E-3,-1.1774716E-2,1.1737628E-2,8.15E1,-1.5647976E-2,-8.721917E-3,-1.3377342E-2,-4.979452E-3,3.2288295E-3,-7.212986E-3,-2.6343076E-3,-1.0014766E-2],"split_indices":[14,1,0,0,5,0,0,5,9,0,10,0,0,0,0,2147483647,2147483647,2147483647,2147483647,0,0,2147483647,2147483647],"split_type":[0,0,0,0,0,0,0,0,0,0,0,0,0,0,0,0,0,0,0,0,0,0,0],"sum_hessian":[1.2259596E2,1.1470629E2,7.8896747E0,2.0298979E1,9.440731E1,1.2499311E0,6.639744E0,1.4086344E1,6.2126346E0,1.986268E0,9.242104E1,1.238144E0,1.28482E1,3.2260034E0,2.9866312E0,8.701529E1,5.405753E0,9.612513E0,3.2356865E0,1.4935573E0,1.4930738E0,1.4790386E0,3.9267147E0],"tree_param":{"num_deleted":"6","num_feature":"21","num_nodes":"23","size_leaf_vector":"0"}},{"base_weights":[-1.1299205E0,-1.3281933E0,1.1353406E0,-5.6325823E-1,-1.4849182E0,-1.8052162E-1,1.4322147E0,-1.142808E0,2.5894237E-1,-1.5200161E0,-4.5975503E-1,-1.1431168E-1,-1.2496449E0,8.568285E-1,-1.2560365E-1,-6.5665424E-1,-1.5349723E0,-3.6878344E-1,4.097987E-1],"categories":[],"categories_nodes":[],"categories_segments":[],"categories_sizes":[],"default_left":[1,1,1,1,1,0,0,1,1,1,0,0,0,0,1,1,1,1,1],"id":18,"left_children":[1,3,5,7,9,-1,-1,11,13,-1,-1,-1,-1,-1,-1,-1,-1,-1,-1],"loss_changes":[5.493805E1,1.2332611E1,4.2093363E0,9.964372E0,2.5595093E0,0E0,0E0,1.1851845E0,2.2238107E0,1.1708069E-1,0E0,0E0,0E0,0E0,9.9398893E-1,0E0,0E0,0E0,0E0],"parents":[2147483647,0,0,1,1,2,2,3,3,4,4,7,7,8,8,9,9,14,14],"right_children":[2,4,6,8,10,-1,-1,12,14,-1,-1,-1,-1,-1,-1,-1,-1,-1,-1],"split_conditions":[5E-1,5E-1,5.05E1,5.9E1,5E-1,-1.8052162E-3,1.4322147E-2,5E-1,5E-1,-1.520016E-2,-4.5975503E-3,-1.1431167E-3,-1.2496448E-2,8.568285E-3,-1.2560365E-3,-6.566542E-3,-1.53497225E-2,-3.6878344E-3,4.097987E-3],"split_indices":[14,1,0,0,10,0,0,5,9,5,0,0,0,0,6,2147483647,2147483647,2147483647,2147483647],"split_type":[0,0,0,0,0,0,0,0,0,0,0,0,0,0,0,0,0,0,0],"sum_hessian":[1.1796098E2,1.08847496E2,9.113489E0,1.9290295E1,8.95572E1,1.7497668E0,7.3637223E0,1.1086057E1,8.204238E0,8.6125854E1,3.4313474E0,1.2380054E0,9.848051E0,2.730595E0,5.4736423E0,2.2312288E0,8.389462E1,3.978026E0,1.4956166E0],"tree_param":{"num_deleted":"4","num_feature":"21","num_nodes":"19","size_leaf_vector":"0"}},{"base_weights":[-1.2112156E0,-1.345958E0,9.260551E-1,-1.4942629E0,-4.7149798E-1,-1.7937317E-1,1.2843778E0,-1.1364514E0,-1.5482291E0,9.2640775E-1,-1.0869864E0,-1.2916235E0,-5.6110036E-1,-2.0055728E-1,1.2657163E0,1.12193346E-1,-1.2542398E0,2.6292235E-1,-1.0484161E0],"categories":[],"categories_nodes":[],"categories_segments":[],"categories_sizes":[],"default_left":[1,1,1,1,1,0,0,1,0,1,1,0,1,0,0,0,0,0,0],"id":19,"left_children":[1,3,5,7,9,-1,-1,11,-1,13,15,-1,17,-1,-1,-1,-1,-1,-1],"loss_changes":[3.5509598E1,1.3862991E1,3.2599082E0,8.6135864E-2,1.6278236E1,0E0,0E0,7.2927856E-1,0E0,2.5350761E0,2.7046404E0,0E0,2.3747926E0,0E0,0E0,0E0,0E0,0E0,0E0],"parents":[2147483647,0,0,1,1,2,2,3,3,4,4,7,7,9,9,10,10,12,12],"right_children":[2,4,6,8,10,-1,-1,12,-1,14,16,-1,18,-1,-1,-1,-1,-1,-1],"split_conditions":[5E-1,7.25E1,5.2E1,5E-1,8.15E1,-1.7937317E-3,1.2843777E-2,5.35E1,-1.5482291E-2,5E-1,5E-1,-1.2916234E-2,6.45E1,-2.0055727E-3,1.2657163E-2,1.1219335E-3,-1.2542398E-2,2.6292235E-3,-1.0484161E-2],"split_indices":[14,0,0,1,0,0,0,0,0,7,9,0,0,0,0,0,0,0,0],"split_type":[0,0,0,0,0,0,0,0,0,0,0,0,0,0,0,0,0,0,0],"sum_hessian":[1.1797714E2,1.1132876E2,6.648381E0,9.457965E1,1.6749111E1,1.7497623E0,4.898619E0,1.5286223E1,7.929343E1,4.9657264E0,1.1783384E1,1.1058749E1,4.2274747E0,1.2437412E0,3.7219853E0,1.4825977E0,1.0300787E1,1.7421194E0,2.4853554E0],"tree_param":{"num_deleted":"0","num_feature":"21","num_nodes":"19","size_leaf_vector":"0"}},{"base_weights":[-1.1977236E0,-1.3278161E0,1.0122131E0,-5.587534E-1,-1.496171E0,-2.1151178E-1,1.2959673E0,-7.982135E-1,1.2716451E0,-1.5269046E0,-7.4152505E-1,-1.1766877E0,1.06334545E-1,-1.1137677E0,3.2354572E-1,-1.06623724E-1,-1.2681912E0,6.406109E-1,-1.1098893E0],"categories":[],"categories_nodes":[],"categories_segments":[],"categories_sizes":[],"default_left":[1,1,1,1,1,0,0,1,0,0,1,1,1,0,0,0,0,0,0],"id":20,"left_children":[1,3,5,7,9,-1,-1,11,-1,-1,13,15,17,-1,-1,-1,-1,-1,-1],"loss_changes":[3.6602753E1,1.4216187E1,2.8386545E0,1.0865923E1,1.0659943E0,0E0,0E0,7.1395226E0,0E0,0E0,2.6016169E0,1.287281E0,5.2343435E0,0E0,0E0,0E0,0E0,0E0,0E0],"parents":[2147483647,0,0,1,1,2,2,3,3,4,4,7,7,10,10,11,11,12,12],"right_children":[2,4,6,8,10,-1,-1,12,-1,-1,14,16,18,-1,-1,-1,-1,-1,-1],"split_conditions":[5E-1,5E-1,4.75E1,5E-1,5E-1,-2.1151176E-3,1.2959673E-2,6.65E1,1.2716451E-2,-1.5269046E-2,8.05E1,5E-1,8.15E1,-1.1137677E-2,3.2354572E-3,-1.0662372E-3,-1.2681912E-2,6.4061084E-3,-1.1098892E-2],"split_indices":[14,1,0,15,12,0,0,0,0,0,0,5,0,0,0,0,0,0,0],"split_type":[0,0,0,0,0,0,0,0,0,0,0,0,0,0,0,0,0,0,0],"sum_hessian":[1.2164068E2,1.1525511E2,6.3855658E0,2.1474817E1,9.37803E1,1.2498837E0,5.135682E0,1.9489088E1,1.9857283E0,8.9127174E1,4.6531177E0,1.3527963E1,5.961126E0,3.414149E0,1.2389685E0,1.2362463E0,1.2291717E1,4.470537E0,1.4905887E0],"tree_param":{"num_deleted":"0","num_feature":"21","num_nodes":"19","size_leaf_vector":"0"}},{"base_weights":[-1.1275463E0,-1.3109466E0,1.2424453E0,-1.4783684E0,-4.3181786E-1,8.775244E-2,1.4115623E0,-1.4924979E0,-6.781257E-1,8.129428E-1,-1.087619E0,-9.49206E-1,-1.0379591E-1,1.1576442E0,-3.0370665E-1,-1.2634968E0,3.2170397E-1,1.4111879E0,1.3651244E-1],"categories":[],"categories_nodes":[],"categories_segments":[],"categories_sizes":[],"default_left":[1,1,1,1,1,0,0,1,1,1,1,1,1,1,0,0,0,0,0],"id":21,"left_children":[1,3,5,-1,9,-1,-1,-1,-1,13,15,-1,-1,17,-1,-1,-1,-1,-1],"loss_changes":[5.345459E1,1.57221985E1,1.6487741E0,3.9001465E-2,1.6553204E1,0E0,0E0,0E0,4.3791807E-1,3.121231E0,3.628582E0,0E0,0E0,1.2846761E0,0E0,0E0,0E0,0E0,0E0],"parents":[2147483647,0,0,1,1,2,2,3,3,4,4,8,8,9,9,10,10,13,13],"right_children":[2,4,6,-1,10,-1,-1,-1,-1,14,16,-1,-1,18,-1,-1,-1,-1,-1],"split_conditions":[5E-1,7.25E1,5E-1,-1.4783683E-2,8.15E1,8.775244E-4,1.4115623E-2,-1.4924979E-2,-6.7812568E-3,5E-1,5E-1,-9.49206E-3,-1.037959E-3,5E-1,-3.0370664E-3,-1.2634967E-2,3.2170396E-3,1.4111878E-2,1.3651244E-3],"split_indices":[14,0,9,16,0,0,0,2147483647,2147483647,1,12,2147483647,2147483647,11,0,0,0,0,0],"split_type":[0,0,0,0,0,0,0,0,0,0,0,0,0,0,0,0,0,0,0],"sum_hessian":[1.1823378E2,1.10156265E2,8.077517E0,9.196144E1,1.8194824E1,1.2259431E0,6.8515735E0,8.9515854E1,2.445586E0,6.19556E0,1.1999265E1,1.2179848E0,1.2276012E0,4.7061076E0,1.4894522E0,1.075994E1,1.2393247E0,3.4640186E0,1.2420893E0],"tree_param":{"num_deleted":"4","num_feature":"21","num_nodes":"19","size_leaf_vector":"0"}},{"base_weights":[-1.1412995E0,-1.2936234E0,1.164679E0,-5.537631E-1,-1.4636362E0,-2.2901596E-1,1.4631312E0,-1.031259E0,4.9637082E-1,-4.2457458E-1,-1.4880788E0,-1.1991699E0,-3.4160516E-1,1.0083662E0,-7.982507E-1,-9.6806854E-1,3.0492046E-1,-9.7961985E-2,-1.3135666E0,7.1668315E-1,-9.71548E-1,1.2098209E0,1.3576418E-1],"categories":[],"categories_nodes":[],"categories_segments":[],"categories_sizes":[],"default_left":[1,1,1,1,1,0,0,1,1,1,0,1,1,1,0,0,0,0,0,0,0,1,1],"id":22,"left_children":[1,3,5,7,9,-1,-1,11,13,15,-1,17,19,-1,-1,-1,-1,-1,-1,-1,-1,-1,-1],"loss_changes":[4.3036957E1,1.3199646E1,3.6012754E0,1.1754339E1,1.6529999E0,0E0,0E0,1.4127579E0,5.897623E0,1.6696907E0,0E0,1.4154816E0,3.6827524E0,8.8127327E-1,0E0,0E0,0E0,0E0,0E0,0E0,0E0,0E0,0E0],"parents":[2147483647,0,0,1,1,2,2,3,3,4,4,7,7,8,8,9,9,11,11,12,12,13,13],"right_children":[2,4,6,8,10,-1,-1,12,14,16,-1,18,20,-1,-1,-1,-1,-1,-1,-1,-1,-1,-1],"split_conditions":[5E-1,5E-1,5.05E1,7.25E1,5E-1,-2.2901595E-3,1.4631311E-2,5.95E1,8.15E1,4.35E1,-1.4880788E-2,5E-1,6.45E1,1.0083662E-2,-7.982506E-3,-9.680686E-3,3.0492046E-3,-9.796198E-4,-1.3135665E-2,7.1668313E-3,-9.71548E-3,1.2098208E-2,1.3576418E-3],"split_indices":[14,1,0,0,5,0,0,0,0,0,0,5,0,11,0,0,0,0,0,0,0,2147483647,2147483647],"split_type":[0,0,0,0,0,0,0,0,0,0,0,0,0,0,0,0,0,0,0,0,0,0,0],"sum_hessian":[1.1723373E2,1.1038137E2,6.8523517E0,2.1420574E1,8.89608E1,1.2496165E0,5.602735E0,1.4737435E1,6.6831384E0,2.4668086E0,8.649399E1,1.1257709E1,3.4797273E0,4.947584E0,1.7355537E0,1.2262094E0,1.2405993E0,1.2341217E0,1.0023586E1,1.2470384E0,2.232689E0,3.7056272E0,1.2419572E0],"tree_param":{"num_deleted":"2","num_feature":"21","num_nodes":"23","size_leaf_vector":"0"}},{"base_weights":[-1.1582669E0,-1.3262233E0,1.3944043E0,-1.4654678E0,-4.4174153E-1,-1.0928402E0,-1.5204968E0,9.290214E-1,-1.1436902E0,-9.742691E-2,-1.1696583E0,-9.8675144E-1,-1.55759E0,1.9938143E-1,1.0714221E0,-3.3253825E-1,-1.2110406E0],"categories":[],"categories_nodes":[],"categories_segments":[],"categories_sizes":[],"default_left":[1,1,0,1,1,1,1,1,0,0,0,1,1,1,1,1,1],"id":23,"left_children":[1,3,-1,5,7,9,-1,-1,-1,-1,-1,-1,-1,-1,-1,-1,-1],"loss_changes":[5.281134E1,1.3151382E1,0E0,3.144226E-1,1.7103323E1,1.1061153E0,7.4905396E-2,4.3031454E-1,0E0,0E0,0E0,7.73911E-1,0E0,0E0,0E0,0E0,0E0],"parents":[2147483647,0,0,1,1,3,3,4,4,5,5,6,6,7,7,11,11],"right_children":[2,4,-1,6,8,10,-1,-1,-1,-1,-1,-1,-1,-1,-1,-1,-1],"split_conditions":[5E-1,7.3E1,1.3944043E-2,5E-1,8.15E1,5E-1,-1.5204968E-2,9.290214E-3,-1.1436902E-2,-9.742691E-4,-1.1696583E-2,-9.8675145E-3,-1.55759E-2,1.9938143E-3,1.0714221E-2,-3.3253825E-3,-1.2110406E-2],"split_indices":[14,0,0,1,0,5,2,7,0,0,0,2147483647,2147483647,2147483647,2147483647,2147483647,2147483647],"split_type":[0,0,0,0,0,0,0,0,0,0,0,0,0,0,0,0,0],"sum_hessian":[1.1786545E2,1.11039894E2,6.8255553E0,9.536901E1,1.5670882E1,1.4955759E1,8.041325E1,5.197579E0,1.0473303E1,1.2339854E0,1.3721773E1,7.0188375E0,7.339441E1,1.2406772E0,3.956902E0,2.4258063E0,4.593031E0],"tree_param":{"num_deleted":"6","num_feature":"21","num_nodes":"17","size_leaf_vector":"0"}},{"base_weights":[-1.1683646E0,-1.322112E0,1.069817E0,-6.921109E-1,-1.4525092E0,-2.2317183E-1,1.3300647E0,-9.253975E-1,1.2339603E0,-8.695558E-1,-1.4987699E0,-1.174938E0,-6.0428925E-2,-9.890713E-1,-4.499962E-2,-6.7331034E-1,-1.5151165E0,-9.689459E-2,-1.2633424E0,5.9783214E-1,-1.0866104E0,-1.8975817E-1,-1.1371139E0,-9.632766E-1,-8.096786E-2],"categories":[],"categories_nodes":[],"categories_segments":[],"categories_sizes":[],"default_left":[1,1,1,1,1,0,0,1,0,1,1,1,1,1,1,1,1,0,0,0,0,1,1,1,1],"id":24,"left_children":[1,3,5,7,9,-1,-1,11,-1,-1,-1,17,19,-1,-1,-1,-1,-1,-1,-1,-1,-1,-1,-1,-1],"loss_changes":[4.298552E1,8.317795E0,3.09577E0,1.0744798E1,1.207901E0,0E0,0E0,4.166958E0,0E0,8.648896E-1,1.2528992E-1,1.3246765E0,4.331312E0,7.323189E-1,0E0,5.142721E-1,0E0,0E0,0E0,0E0,0E0,0E0,0E0,0E0,0E0],"parents":[2147483647,0,0,1,1,2,2,3,3,4,4,7,7,9,9,10,10,11,11,12,12,13,13,15,15],"right_children":[2,4,6,8,10,-1,-1,12,-1,-1,-1,18,20,-1,-1,-1,-1,-1,-1,-1,-1,-1,-1,-1,-1],"split_conditions":[5E-1,5E-1,4.55E1,5E-1,5E-1,-2.2317183E-3,1.3300646E-2,7.3E1,1.2339602E-2,-8.695558E-3,-1.4987699E-2,5E-1,8.15E1,-9.890713E-3,-4.499962E-4,-6.733103E-3,-1.51511645E-2,-9.689459E-4,-1.2633423E-2,5.978321E-3,-1.0866104E-2,-1.8975816E-3,-1.1371139E-2,-9.632766E-3,-8.096786E-4],"split_indices":[14,1,0,15,2,0,0,0,0,12,7,5,0,2147483647,2147483647,2147483647,2147483647,0,0,0,0,2147483647,2147483647,2147483647,2147483647],"split_type":[0,0,0,0,0,0,0,0,0,0,0,0,0,0,0,0,0,0,0,0,0,0,0,0,0],"sum_hessian":[1.1980601E2,1.1248815E2,7.317855E0,2.0371748E1,9.21164E1,1.2499903E0,6.0678644E0,1.8634295E1,1.7374525E0,8.228028E0,8.3888374E1,1.4183923E1,4.4503727E0,7.012133E0,1.2158954E0,2.448235E0,8.144014E1,1.2338494E0,1.2950073E1,2.965515E0,1.4848577E0,1.4523536E0,5.559779E0,1.2232219E0,1.2250133E0],"tree_param":{"num_deleted":"8","num_feature":"21","num_nodes":"25","size_leaf_vector":"0"}},{"base_weights":[-1.1492455E0,-1.3087555E0,1.0684152E0,-5.048909E-1,-1.4722717E0,-2.3773482E-1,1.324905E0,-1.1360229E0,2.766347E-1,-8.246808E-1,-1.5219051E0,-2.718526E-3,1.1125892E0,-1.0565565E0,3.2232288E-1,8.9690346E-1,-3.7100402E-1,-1.8517773E-1,-1.2346888E0],"categories":[],"categories_nodes":[],"categories_segments":[],"categories_sizes":[],"default_left":[1,1,1,1,1,0,0,0,1,1,0,1,0,1,0,0,0,1,1],"id":25,"left_children":[1,3,5,7,9,-1,-1,-1,11,13,-1,15,-1,-1,-1,-1,-1,-1,-1],"loss_changes":[4.3505676E1,1.3912399E1,3.1752949E0,1.0360828E1,1.706131E0,0E0,0E0,0E0,2.3158937E0,2.6653814E0,0E0,3.122768E0,0E0,9.362974E-1,0E0,0E0,0E0,0E0,0E0],"parents":[2147483647,0,0,1,1,2,2,3,3,4,4,8,8,9,9,11,11,13,13],"right_children":[2,4,6,8,10,-1,-1,-1,12,14,-1,16,-1,-1,-1,-1,-1,-1,-1],"split_conditions":[5E-1,5E-1,5.05E1,5.95E1,5E-1,-2.3773483E-3,1.324905E-2,-1.1360229E-2,5E-1,6.7E1,-1.521905E-2,5E-1,1.1125892E-2,-1.0565564E-2,3.2232287E-3,8.969034E-3,-3.7100401E-3,-1.8517772E-3,-1.2346887E-2],"split_indices":[14,1,0,0,2,0,0,0,15,0,0,8,0,0,0,0,0,2147483647,2147483647],"split_type":[0,0,0,0,0,0,0,0,0,0,0,0,0,0,0,0,0,0,0],"sum_hessian":[1.18035164E2,1.1049726E2,7.5379043E0,1.9368273E1,9.112899E1,1.2492647E0,6.2886395E0,1.046418E1,8.904093E0,7.7412004E0,8.338779E1,7.420959E0,1.4831342E0,6.505017E0,1.2361839E0,1.7386234E0,5.6823354E0,1.4502602E0,5.0547566E0],"tree_param":{"num_deleted":"2","num_feature":"21","num_nodes":"19","size_leaf_vector":"0"}},{"base_weights":[-1.0949748E0,-1.248136E0,1.0527607E0,-3.8993457E-1,-1.4346966E0,-1.2681688E-2,1.2898697E0,-8.662381E-1,8.129689E-1,-2.9826662E-1,-1.4601232E0,-1.029705E0,-3.488109E-1,1.2569656E0,-5.800967E-1,-1.4945165E0,-7.5480336E-1,4.6059987E-1,-7.979531E-1,-4.2741198E-2,-9.2433417E-1],"categories":[],"categories_nodes":[],"categories_segments":[],"categories_sizes":[],"default_left":[1,1,1,1,1,0,0,1,1,0,1,0,1,0,0,1,1,0,0,1,1],"id":26,"left_children":[1,3,5,7,9,-1,-1,11,13,-1,-1,-1,17,-1,-1,-1,-1,-1,-1,-1,-1],"loss_changes":[3.9599533E1,1.690773E1,2.1105938E0,1.265272E1,2.1432343E0,0E0,0E0,9.453621E-1,4.706953E0,0E0,9.832001E-1,0E0,2.2634196E0,0E0,0E0,0E0,6.928847E-1,0E0,0E0,0E0,0E0],"parents":[2147483647,0,0,1,1,2,2,3,3,4,4,7,7,8,8,10,10,12,12,16,16],"right_children":[2,4,6,8,10,-1,-1,12,14,-1,-1,-1,18,-1,-1,-1,-1,-1,-1,-1,-1],"split_conditions":[5E-1,5E-1,5.05E1,7.25E1,5E-1,-1.2681689E-4,1.2898697E-2,5.95E1,8.15E1,-2.982666E-3,-1.4601232E-2,-1.0297051E-2,6.45E1,1.2569656E-2,-5.800967E-3,-1.4945164E-2,-7.5480333E-3,4.6059988E-3,-7.979531E-3,-4.27412E-4,-9.243341E-3],"split_indices":[14,1,0,0,5,0,0,0,0,0,10,0,0,0,0,2147483647,2147483647,0,0,2147483647,2147483647],"split_type":[0,0,0,0,0,0,0,0,0,0,0,0,0,0,0,0,0,0,0,0,0],"sum_hessian":[1.1538714E2,1.0809727E2,7.289871E0,1.9854443E1,8.824282E1,1.4993042E0,5.7905674E0,1.4423263E1,5.431181E0,2.2097523E0,8.603307E1,1.0208211E1,4.215051E0,4.192613E0,1.238568E0,8.096603E1,5.0670424E0,1.4951296E0,2.7199216E0,1.215177E0,3.851865E0],"tree_param":{"num_deleted":"4","num_feature":"21","num_nodes":"21","size_leaf_vector":"0"}},{"base_weights":[-1.1426035E0,-1.3005027E0,9.6618456E-1,-6.5320504E-1,-1.4444063E0,-4.1271666E-1,1.3078902E0,-1.2219211E0,2.85338E-2,-1.4605248E0,-6.649671E-1,6.104059E-1,-4.2840838E-1,-8.974124E-1,-1.843335E-1,9.212202E-2,9.030582E-1,2.9966253E-1,-9.2799515E-1],"categories":[],"categories_nodes":[],"categories_segments":[],"categories_sizes":[],"default_left":[1,1,1,1,1,0,0,0,1,1,1,1,1,1,1,1,1,0,0],"id":27,"left_children":[1,3,5,7,-1,-1,-1,-1,11,-1,-1,-1,17,-1,-1,-1,-1,-1,-1],"loss_changes":[4.0373825E1,9.276794E0,4.6660585E0,8.479922E0,1.4620972E-1,0E0,0E0,0E0,3.1552544E0,0E0,2.4099708E-1,7.0549154E-1,2.7092285E0,0E0,0E0,0E0,0E0,0E0,0E0],"parents":[2147483647,0,0,1,1,2,2,3,3,4,4,8,8,10,10,11,11,12,12],"right_children":[2,4,6,8,-1,-1,-1,-1,12,-1,-1,-1,18,-1,-1,-1,-1,-1,-1],"split_conditions":[5E-1,5E-1,5.05E1,5.35E1,-1.44440625E-2,-4.1271667E-3,1.3078902E-2,-1.221921E-2,5E-1,-1.4605247E-2,-6.649671E-3,6.104059E-3,5E-1,-8.974124E-3,-1.843335E-3,9.2122017E-4,9.030581E-3,2.9966251E-3,-9.279951E-3],"split_indices":[14,1,0,0,16,0,0,0,9,2147483647,2147483647,0,4,2147483647,2147483647,2147483647,2147483647,0,0],"split_type":[0,0,0,0,0,0,0,0,0,0,0,0,0,0,0,0,0,0,0],"sum_hessian":[1.1647789E2,1.0872054E2,7.7573442E0,2.0781559E1,8.793899E1,1.4993062E0,6.258038E0,1.0897964E1,9.8835945E0,8.530117E1,2.6378155E0,4.1997566E0,5.683838E0,1.193478E0,1.4443376E0,1.9900981E0,2.2096589E0,2.4758484E0,3.2079892E0],"tree_param":{"num_deleted":"6","num_feature":"21","num_nodes":"19","size_leaf_vector":"0"}},{"base_weights":[-1.0734599E0,-1.2491302E0,1.1820935E0,-5.7984054E-1,-1.4000236E0,1.7540692E-1,1.321297E0,-1.1111697E0,3.9717293E-1,-1.4304237E0,-7.991486E-1,8.154943E-1,-7.716712E-1,9.3871146E-1,1.5298817E-1],"categories":[],"categories_nodes":[],"categories_segments":[],"categories_sizes":[],"default_left":[1,1,1,1,1,0,0,0,1,1,1,1,0,1,1],"id":28,"left_children":[1,3,5,7,-1,-1,-1,-1,11,-1,-1,-1,-1,-1,-1],"loss_changes":[4.7803528E1,1.0191864E1,1.0240946E0,1.173325E1,4.6806335E-1,0E0,0E0,0E0,4.7360663E0,0E0,0E0,4.0100574E-1,0E0,0E0,0E0],"parents":[2147483647,0,0,1,1,2,2,3,3,4,4,8,8,11,11],"right_children":[2,4,6,8,-1,-1,-1,-1,12,-1,-1,-1,-1,-1,-1],"split_conditions":[5E-1,5E-1,5.25E1,6.65E1,-1.4000235E-2,1.7540691E-3,1.321297E-2,-1.1111696E-2,8.15E1,-1.4304237E-2,-7.991486E-3,8.154943E-3,-7.7167116E-3,9.387114E-3,1.5298816E-3],"split_indices":[14,1,0,0,10,0,0,0,0,2147483647,2147483647,11,0,2147483647,2147483647],"split_type":[0,0,0,0,0,0,0,0,0,0,0,0,0,0,0],"sum_hessian":[1.1591813E2,1.0795631E2,7.961819E0,2.0752224E1,8.720409E1,1.2417631E0,6.720056E0,1.3353097E1,7.3991265E0,8.169055E1,5.5135384E0,5.6716046E0,1.7275218E0,4.430653E0,1.2409515E0],"tree_param":{"num_deleted":"4","num_feature":"21","num_nodes":"15","size_leaf_vector":"0"}},{"base_weights":[-1.0761336E0,-1.2112782E0,9.5052314E-1,-4.8324564E-1,-1.3724484E0,-2.6513115E-1,1.2338037E0,-9.1697186E-1,5.0058466E-1,-7.239287E-1,-1.4316832E0,-1.0845687E0,-2.927844E-1,8.22818E-1,-5.440711E-1,-9.472961E-1,4.0300864E-1,-6.772756E-1,-1.4494267E0,2.6207164E-1,-9.6711093E-1,-1.5416662E-1,-1.0987353E0,-9.6381986E-1,-5.880942E-2],"categories":[],"categories_nodes":[],"categories_segments":[],"categories_sizes":[],"default_left":[1,1,1,1,1,0,0,1,1,1,1,0,1,0,0,1,0,1,1,0,0,1,1,1,1],"id":29,"left_children":[1,3,5,7,9,-1,-1,11,13,15,-1,-1,19,-1,-1,-1,-1,-1,-1,-1,-1,-1,-1,-1,-1],"loss_changes":[3.1590652E1,1.1613571E1,2.91265E0,9.209889E0,2.2334595E0,0E0,0E0,1.208334E0,2.7776177E0,2.6842446E0,4.8690796E-2,0E0,1.9211371E0,0E0,0E0,7.8336906E-1,0E0,5.894418E-1,0E0,0E0,0E0,0E0,0E0,0E0,0E0],"parents":[2147483647,0,0,1,1,2,2,3,3,4,4,7,7,8,8,9,9,10,10,12,12,15,15,17,17],"right_children":[2,4,6,8,10,-1,-1,12,14,16,-1,-1,20,-1,-1,-1,-1,-1,-1,-1,-1,-1,-1,-1,-1],"split_conditions":[5E-1,5E-1,5.25E1,6.65E1,5E-1,-2.6513115E-3,1.2338038E-2,5.35E1,8.15E1,5E-1,-1.4316832E-2,-1.0845687E-2,6.45E1,8.22818E-3,-5.4407106E-3,-9.472961E-3,4.030086E-3,-6.7727556E-3,-1.4494266E-2,2.6207163E-3,-9.671109E-3,-1.5416662E-3,-1.09873535E-2,-9.638199E-3,-5.880942E-4],"split_indices":[14,1,0,0,2,0,0,0,0,12,7,0,0,0,0,0,0,2147483647,2147483647,0,0,2147483647,2147483647,2147483647,2147483647],"split_type":[0,0,0,0,0,0,0,0,0,0,0,0,0,0,0,0,0,0,0,0,0,0,0,0,0],"sum_hessian":[1.1013635E2,1.0362838E2,6.5079746E0,1.950762E1,8.412076E1,1.2420367E0,5.265938E0,1.3586087E1,5.921533E0,8.146935E0,7.597382E1,1.0128874E1,3.457213E0,4.6878724E0,1.2336607E0,6.9323072E0,1.2146283E0,2.6459274E0,7.3327896E1,2.232008E0,1.2252051E0,1.434972E0,5.4973354E0,1.4265727E0,1.2193549E0],"tree_param":{"num_deleted":"6","num_feature":"21","num_nodes":"25","size_leaf_vector":"0"}},{"base_weights":[-1.1226761E0,-1.2672632E0,1.0084941E0,-1.4455829E0,-3.3049E-1,-2.1775143E-1,1.2681822E0,-8.9712596E-1,-1.4748644E0,9.0554094E-1,-9.968259E-1,-7.1742855E-2,-1.1442255E0,1.1291958E0,-9.284261E-2,-1.17477E0,3.719595E-1,-2.8817528E-1,-1.2770087E0],"categories":[],"categories_nodes":[],"categories_segments":[],"categories_sizes":[],"default_left":[1,1,1,1,1,0,0,1,0,1,1,0,0,0,0,1,0,1,1],"id":30,"left_children":[1,3,5,7,9,-1,-1,11,-1,13,15,-1,-1,-1,-1,-1,-1,-1,-1],"loss_changes":[3.7333054E1,1.7900192E1,2.8207617E0,1.5640259E-1,1.6460562E1,0E0,0E0,1.3908792E0,0E0,1.6992583E0,3.5422945E0,0E0,0E0,0E0,0E0,6.765013E-1,0E0,0E0,0E0],"parents":[2147483647,0,0,1,1,2,2,3,3,4,4,7,7,9,9,10,10,15,15],"right_children":[2,4,6,8,10,-1,-1,12,-1,14,16,-1,-1,-1,-1,-1,-1,-1,-1],"split_conditions":[5E-1,7.25E1,4.55E1,5E-1,8.15E1,-2.1775141E-3,1.2681821E-2,5E-1,-1.4748643E-2,5E-1,5E-1,-7.174285E-4,-1.1442254E-2,1.1291957E-2,-9.2842604E-4,-1.17477E-2,3.719595E-3,-2.8817528E-3,-1.27700865E-2],"split_indices":[14,0,0,8,0,0,0,1,0,1,12,0,0,0,0,1,0,2147483647,2147483647],"split_type":[0,0,0,0,0,0,0,0,0,0,0,0,0,0,0,0,0,0,0],"sum_hessian":[1.160087E2,1.0901785E2,6.99084E0,9.112801E1,1.7889843E1,1.2499709E0,5.740869E0,6.2221456E0,8.490587E1,6.1404767E0,1.1749367E1,1.7308733E0,4.4912724E0,4.909615E0,1.2308615E0,1.0523092E1,1.2262746E0,1.4828396E0,9.040253E0],"tree_param":{"num_deleted":"2","num_feature":"21","num_nodes":"19","size_leaf_vector":"0"}},{"base_weights":[-1.1003773E0,-1.2328404E0,8.7487465E-1,-1.3664742E0,-4.9768588E-1,-4.1139233E-1,1.2359484E0,-9.774495E-1,-1.4274056E0,7.921378E-1,-1.0860028E0,-2.0119308E-1,-1.0737267E0,1.1130347E0,-3.074015E-1,-4.1511932E-1,-1.150833E0,-1.1653985E0,-7.002153E-2],"categories":[],"categories_nodes":[],"categories_segments":[],"categories_sizes":[],"default_left":[1,1,1,1,1,0,0,1,0,1,1,0,1,0,0,1,1,0,0],"id":31,"left_children":[1,3,5,7,9,-1,-1,11,-1,13,-1,-1,17,-1,-1,-1,-1,-1,-1],"loss_changes":[3.1861847E1,1.0192551E1,4.2141724E0,8.110504E-1,1.4971436E1,0E0,0E0,9.6303463E-1,0E0,2.6014986E0,9.606457E-2,0E0,1.1886187E0,0E0,0E0,0E0,0E0,0E0,0E0],"parents":[2147483647,0,0,1,1,2,2,3,3,4,4,7,7,9,9,10,10,12,12],"right_children":[2,4,6,8,10,-1,-1,12,-1,14,-1,-1,18,-1,-1,-1,-1,-1,-1],"split_conditions":[5E-1,7.25E1,5.05E1,5E-1,8.15E1,-4.1139233E-3,1.2359484E-2,5E-1,-1.4274056E-2,5E-1,-1.0860028E-2,-2.0119308E-3,5E-1,1.1130347E-2,-3.074015E-3,-4.151193E-3,-1.150833E-2,-1.1653985E-2,-7.002153E-4],"split_indices":[14,0,0,1,0,0,0,8,0,6,1,0,10,0,0,2147483647,2147483647,0,0],"split_type":[0,0,0,0,0,0,0,0,0,0,0,0,0,0,0,0,0,0,0],"sum_hessian":[1.16651474E2,1.0967254E2,6.9789333E0,9.207646E1,1.7596077E1,1.4991381E0,5.4797955E0,1.4776395E1,7.730007E1,5.4033494E0,1.2192728E1,1.971385E0,1.280501E1,4.1731544E0,1.2301948E0,1.7267671E0,1.04659605E1,1.1585746E1,1.2192633E0],"tree_param":{"num_deleted":"2","num_feature":"21","num_nodes":"19","size_leaf_vector":"0"}},{"base_weights":[-1.0265288E0,-1.1813359E0,1.0584682E0,-1.3254334E0,-3.9897797E-1,-1.8879616E-1,1.4000578E0,-9.0065E-1,-1.4018508E0,7.382932E-1,-9.8446167E-1,-1.1164365E0,-2.780339E-1,1.0191307E0,-3.0566758E-1,-1.1623756E0,3.7608677E-1,2.6921254E-1,-7.084299E-1,-1.9012333E-1,1.3987623E0,-4.0854803E-1,-1.25375E0],"categories":[],"categories_nodes":[],"categories_segments":[],"categories_sizes":[],"default_left":[1,1,1,1,1,0,0,1,0,1,1,0,1,1,0,1,0,0,0,0,0,1,1],"id":32,"left_children":[1,3,5,7,9,-1,-1,11,-1,13,15,-1,17,19,-1,-1,-1,-1,-1,-1,-1,-1,-1],"loss_changes":[3.9363693E1,1.1916351E1,3.9661932E0,1.749527E0,1.3112133E1,0E0,0E0,1.9661598E0,0E0,2.3324094E0,3.5131912E0,0E0,1.5315678E0,2.8654103E0,0E0,2.787094E-1,0E0,0E0,0E0,0E0,0E0,0E0,0E0],"parents":[2147483647,0,0,1,1,2,2,3,3,4,4,7,7,9,9,10,10,12,12,13,13,15,15],"right_children":[2,4,6,8,10,-1,-1,12,-1,14,16,-1,18,20,-1,-1,-1,-1,-1,-1,-1,-1,-1],"split_conditions":[5E-1,7.25E1,5.05E1,5E-1,8.15E1,-1.8879616E-3,1.4000578E-2,5.35E1,-1.4018508E-2,5E-1,5E-1,-1.1164364E-2,6.45E1,5E-1,-3.0566757E-3,-1.1623755E-2,3.7608675E-3,2.6921253E-3,-7.0842984E-3,-1.9012333E-3,1.3987623E-2,-4.0854802E-3,-1.2537499E-2],"split_indices":[14,0,0,1,0,0,0,0,0,6,12,0,0,7,0,1,0,0,0,0,0,2147483647,2147483647],"split_type":[0,0,0,0,0,0,0,0,0,0,0,0,0,0,0,0,0,0,0,0,0,0,0],"sum_hessian":[1.17080986E2,1.0939223E2,7.688759E0,9.179158E1,1.7600649E1,1.7491809E0,5.939578E0,1.5944789E1,7.584679E1,5.8929358E0,1.1707713E1,1.1251949E1,4.6928396E0,4.662463E0,1.2304726E0,1.0482598E1,1.2251145E0,2.2308385E0,2.4620008E0,1.2332709E0,3.4291923E0,1.7247514E0,8.757848E0],"tree_param":{"num_deleted":"2","num_feature":"21","num_nodes":"23","size_leaf_vector":"0"}},{"base_weights":[-1.0598235E0,-1.206079E0,9.045279E-1,-4.6126777E-1,-1.3860232E0,-4.0778044E-1,1.2476897E0,-9.480861E-1,5.8842945E-1,-1.4210935E0,-5.9027106E-1,-5.1435375E-1,-1.0386369E0,9.457835E-1,-4.0152884E-1,-6.288513E-1,-1.4375811E0,4.185994E-1,-9.914654E-1,-9.924202E-1,9.838264E-3,-5.3698087E-1,-1.1427563E0,1.1531469E0,8.815304E-2,-9.0223795E-1,-7.558695E-2],"categories":[],"categories_nodes":[],"categories_segments":[],"categories_sizes":[],"default_left":[1,1,1,1,1,0,0,1,1,1,1,1,1,1,0,1,1,0,0,0,0,1,1,1,1,1,1],"id":33,"left_children":[1,3,5,7,9,-1,-1,11,13,-1,17,19,-1,-1,-1,-1,-1,-1,-1,-1,-1,-1,-1,-1,-1,-1,-1],"loss_changes":[3.3633926E1,1.354744E1,4.3009295E0,1.1849262E1,1.526474E0,0E0,0E0,7.368088E-2,3.0746787E0,1.4706421E-1,2.5554194E0,1.1761434E0,3.9510727E-3,9.467778E-1,0E0,4.4880497E-1,0E0,0E0,0E0,0E0,0E0,0E0,0E0,0E0,0E0,0E0,0E0],"parents":[2147483647,0,0,1,1,2,2,3,3,4,4,7,7,8,8,9,9,10,10,11,11,12,12,13,13,15,15],"right_children":[2,4,6,8,10,-1,-1,12,14,-1,18,20,-1,-1,-1,-1,-1,-1,-1,-1,-1,-1,-1,-1,-1,-1,-1],"split_conditions":[5E-1,5E-1,5.05E1,7.3E1,5E-1,-4.0778043E-3,1.2476897E-2,5E-1,8.15E1,-1.4210935E-2,5E-1,4.35E1,-1.0386369E-2,9.457835E-3,-4.0152883E-3,-6.2885126E-3,-1.43758105E-2,4.1859937E-3,-9.914653E-3,-9.924201E-3,9.838264E-5,-5.3698085E-3,-1.1427564E-2,1.15314685E-2,8.815304E-4,-9.022379E-3,-7.558695E-4],"split_indices":[14,1,0,0,12,0,0,4,0,5,2,0,9,11,0,2147483647,2147483647,0,0,0,0,2147483647,2147483647,2147483647,2147483647,2147483647,2147483647],"split_type":[0,0,0,0,0,0,0,0,0,0,0,0,0,0,0,0,0,0,0,0,0,0,0,0,0,0,0],"sum_hessian":[1.1227291E2,1.0485217E2,7.4207377E0,2.1096123E1,8.375605E1,1.4992087E0,5.921529E0,1.44783125E1,6.6178107E0,7.946791E1,4.2881446E0,3.6543746E0,1.0823938E1,4.8953247E0,1.722486E0,2.4180832E0,7.704983E1,1.2077277E0,3.0804172E0,1.4441044E0,2.2102702E0,2.9187098E0,7.9052286E0,3.6646814E0,1.2306432E0,1.196231E0,1.2218521E0],"tree_param":{"num_deleted":"8","num_feature":"21","num_nodes":"27","size_leaf_vector":"0"}},{"base_weights":[-1.0872681E0,-1.2562312E0,1.1266761E0,-5.9266675E-1,-1.3990397E0,3.5415134E-1,1.3780668E0,-1.1311761E0,6.0412854E-1,-3.1412926E-1,8.7438047E-1,8.912968E-1,-2.6600733E-1],"categories":[],"categories_nodes":[],"categories_segments":[],"categories_sizes":[],"default_left":[1,1,1,1,0,1,0,0,1,0,0,0,0],"id":34,"left_children":[1,3,5,7,-1,9,-1,-1,11,-1,-1,-1,-1],"loss_changes":[4.289676E1,8.978836E0,1.141346E0,1.3614935E1,0E0,1.4587226E0,0E0,0E0,1.9558651E0,0E0,0E0,0E0,0E0],"parents":[2147483647,0,0,1,1,2,2,3,3,5,5,8,8],"right_children":[2,4,6,8,-1,10,-1,-1,12,-1,-1,-1,-1],"split_conditions":[5E-1,5E-1,5E-1,6.65E1,-1.3990398E-2,7.7E1,1.3780667E-2,-1.1311761E-2,8.15E1,-3.1412926E-3,8.743805E-3,8.9129675E-3,-2.6600733E-3],"split_indices":[14,1,2,0,0,0,0,0,0,0,0,0,0],"split_type":[0,0,0,0,0,0,0,0,0,0,0,0,0],"sum_hessian":[1.0989069E2,1.0250066E2,7.390027E0,1.9064938E1,8.343572E1,2.4057913E0,4.984236E0,1.3186416E1,5.878523E0,1.2264625E0,1.1793289E0,4.401568E0,1.476955E0],"tree_param":{"num_deleted":"0","num_feature":"21","num_nodes":"13","size_leaf_vector":"0"}},{"base_weights":[-1.0525981E0,-1.2114958E0,1.1075507E0,-1.3627839E0,-3.1880414E-1,3.5248333E-1,1.3531185E0,-8.873586E-1,-1.4423954E0,7.230511E-1,-9.4331264E-1,-3.1235737E-1,8.706407E-1,-1.0853457E0,-2.3789923E-1,1.0414221E0,-2.6178163E-1,-1.1497777E0,3.8450333E-1,7.400783E-1,-7.666295E-1],"categories":[],"categories_nodes":[],"categories_segments":[],"categories_sizes":[],"default_left":[1,1,1,1,1,1,0,1,0,1,1,0,0,0,1,0,0,0,0,0,0],"id":35,"left_children":[1,3,5,7,9,11,-1,13,-1,15,17,-1,-1,-1,19,-1,-1,-1,-1,-1,-1],"loss_changes":[4.0598198E1,1.4017685E1,1.0729437E0,2.1718597E0,1.1621246E1,1.4444696E0,0E0,1.7579556E0,0E0,2.42574E0,3.4428291E0,0E0,0E0,0E0,3.1238012E0,0E0,0E0,0E0,0E0,0E0,0E0],"parents":[2147483647,0,0,1,1,2,2,3,3,4,4,5,5,7,7,9,9,10,10,14,14],"right_children":[2,4,6,8,10,12,-1,14,-1,16,18,-1,-1,-1,20,-1,-1,-1,-1,-1,-1],"split_conditions":[5E-1,7.25E1,5E-1,5E-1,8.15E1,7.7E1,1.3531185E-2,5.95E1,-1.4423954E-2,5E-1,5E-1,-3.1235735E-3,8.706407E-3,-1.0853457E-2,6.45E1,1.0414221E-2,-2.6178162E-3,-1.1497776E-2,3.8450332E-3,7.4007823E-3,-7.666295E-3],"split_indices":[14,0,2,1,0,0,0,0,0,1,12,0,0,0,0,0,0,0,0,0,0],"split_type":[0,0,0,0,0,0,0,0,0,0,0,0,0,0,0,0,0,0,0,0,0],"sum_hessian":[1.13369225E2,1.060104E2,7.3588266E0,9.019763E1,1.5812764E1,2.403615E0,4.9552116E0,1.4679633E1,7.5518E1,5.8670645E0,9.9457E0,1.2267567E0,1.1768582E0,1.0735709E1,3.9439242E0,4.3903246E0,1.4767399E0,8.723369E0,1.2223315E0,1.243721E0,2.7002032E0],"tree_param":{"num_deleted":"0","num_feature":"21","num_nodes":"21","size_leaf_vector":"0"}},{"base_weights":[-9.9839413E-1,-1.1622101E0,1.0382539E0,-3.769193E-1,-1.3451585E0,-2.1493687E-1,1.2729069E0,-9.2735046E-1,9.624562E-1,-8.0695194E-1,-1.3856577E0,4.119576E-1,1.3667006E0,-2.3646247E-2,-1.0385951E0,1.2182553E0,-8.753389E-2,-1.206062E-1,-1.0227015E0,-6.816792E-1,-1.4034113E0,-8.502243E-1,-2.8927773E-1],"categories":[],"categories_nodes":[],"categories_segments":[],"categories_sizes":[],"default_left":[1,1,1,1,1,0,1,1,1,1,1,1,1,0,0,0,0,0,0,1,1,1,1],"id":36,"left_children":[1,3,5,7,9,-1,-1,13,15,17,-1,-1,-1,-1,-1,-1,-1,-1,-1,-1,-1,-1,-1],"loss_changes":[3.845974E1,1.4408173E1,2.8733253E0,1.6378515E1,7.086792E-1,0E0,4.9949646E-2,1.523303E0,1.8816853E0,1.0997505E0,7.6293945E-5,0E0,0E0,0E0,0E0,0E0,0E0,0E0,0E0,7.1954727E-3,0E0,0E0,0E0],"parents":[2147483647,0,0,1,1,2,2,3,3,4,4,6,6,7,7,8,8,9,9,10,10,19,19],"right_children":[2,4,6,8,10,-1,-1,14,16,18,-1,-1,-1,-1,-1,-1,-1,-1,-1,-1,-1,-1,-1],"split_conditions":[5E-1,5E-1,4.55E1,7.25E1,5E-1,-2.1493686E-3,1.2729068E-2,5E-1,8.15E1,4.05E1,-1.3856577E-2,4.119576E-3,1.3667006E-2,-2.3646247E-4,-1.0385951E-2,1.2182552E-2,-8.753389E-4,-1.2060619E-3,-1.0227015E-2,-6.816792E-3,-1.4034112E-2,-8.502243E-3,-2.8927773E-3],"split_indices":[14,1,0,0,2,0,9,8,0,0,7,2147483647,2147483647,0,0,0,0,0,0,2147483647,2147483647,2147483647,2147483647],"split_type":[0,0,0,0,0,0,0,0,0,0,0,0,0,0,0,0,0,0,0,0,0,0,0],"sum_hessian":[1.10658E2,1.0281733E2,7.8406696E0,2.0005516E1,8.281181E1,1.2498305E0,6.590839E0,1.4396669E1,5.608846E0,7.259759E0,7.5552055E1,1.177208E0,5.413631E0,1.7108676E0,1.26858015E1,4.3812337E0,1.2276121E0,2.1091397E0,5.150619E0,2.8275871E0,7.272447E1,1.1618333E0,1.6657538E0],"tree_param":{"num_deleted":"6","num_feature":"21","num_nodes":"23","size_leaf_vector":"0"}},{"base_weights":[-1.0495359E0,-1.1896094E0,8.8726866E-1,-5.461538E-1,-1.3356516E0,-1.9461158E-1,1.2027061E0,-7.895172E-1,1.2587961E0,-8.082537E-1,-1.3733108E0,-1.1172918E0,6.938975E-2,1.4666127E-1,-1.0666068E0,-2.563674E-2,-1.2160064E0,3.319015E-1,-5.714626E-1,-1.2866001E0,-4.4993013E-2],"categories":[],"categories_nodes":[],"categories_segments":[],"categories_sizes":[],"default_left":[1,1,1,1,1,0,0,1,0,1,0,1,1,0,1,0,0,0,0,0,0],"id":37,"left_children":[1,3,5,7,9,-1,-1,11,-1,13,-1,15,17,-1,19,-1,-1,-1,-1,-1,-1],"loss_changes":[3.2385674E1,9.430954E0,3.087554E0,1.0522398E1,6.2649536E-1,0E0,0E0,5.631962E0,0E0,2.1935534E0,0E0,1.5139809E0,1.2648455E0,0E0,1.4299202E0,0E0,0E0,0E0,0E0,0E0,0E0],"parents":[2147483647,0,0,1,1,2,2,3,3,4,4,7,7,9,9,11,11,12,12,14,14],"right_children":[2,4,6,8,10,-1,-1,12,-1,14,-1,16,18,-1,20,-1,-1,-1,-1,-1,-1],"split_conditions":[5E-1,5E-1,5.5E1,5E-1,5E-1,-1.9461157E-3,1.2027061E-2,6.6E1,1.2587961E-2,4.05E1,-1.3733108E-2,5E-1,8.05E1,1.4666127E-3,6.4E1,-2.563674E-4,-1.2160064E-2,3.3190148E-3,-5.7146256E-3,-1.2866001E-2,-4.499301E-4],"split_indices":[14,1,0,15,2,0,0,0,0,0,0,5,0,0,0,0,0,0,0,0,0],"split_type":[0,0,0,0,0,0,0,0,0,0,0,0,0,0,0,0,0,0,0,0,0],"sum_hessian":[1.14483795E2,1.0712229E2,7.361505E0,2.0692354E1,8.642994E1,1.7482926E0,5.613212E0,1.8729603E1,1.9627514E0,7.2573195E0,7.9172615E1,1.3338542E1,5.3910604E0,1.6374308E0,5.619889E0,1.2105998E0,1.2127942E1,4.166454E0,1.2246069E0,4.4107103E0,1.2091784E0],"tree_param":{"num_deleted":"0","num_feature":"21","num_nodes":"21","size_leaf_vector":"0"}},{"base_weights":[-1.0663846E0,-1.2062964E0,9.6899426E-1,-1.3415241E0,-3.6565945E-1,-1.9337127E-1,1.3317417E0,-9.478339E-1,-1.4063606E0,7.87455E-1,-8.239904E-1,-2.5497004E-2,-1.0213288E0,9.755122E-1,1.8707778E-1,2.406084E-1,-1.0536958E0,-1.205096E0,-3.6749375E-1],"categories":[],"categories_nodes":[],"categories_segments":[],"categories_sizes":[],"default_left":[1,1,1,1,1,0,0,1,0,1,1,0,1,1,1,0,0,0,0],"id":38,"left_children":[1,3,5,7,9,-1,-1,11,-1,-1,15,-1,17,-1,-1,-1,-1,-1,-1],"loss_changes":[3.3618683E1,1.168042E1,3.581612E0,1.0116272E0,9.216521E0,0E0,0E0,1.0623188E0,0E0,3.9581752E-1,3.2098017E0,0E0,1.3408146E0,0E0,0E0,0E0,0E0,0E0,0E0],"parents":[2147483647,0,0,1,1,2,2,3,3,4,4,7,7,9,9,10,10,12,12],"right_children":[2,4,6,8,10,-1,-1,12,-1,-1,16,-1,18,-1,-1,-1,-1,-1,-1],"split_conditions":[5E-1,7.25E1,5.05E1,5E-1,5E-1,-1.9337126E-3,1.3317416E-2,5E-1,-1.4063606E-2,7.87455E-3,8.15E1,-2.5497004E-4,5.95E1,9.755122E-3,1.8707777E-3,2.406084E-3,-1.05369575E-2,-1.205096E-2,-3.6749374E-3],"split_indices":[14,0,0,1,9,0,0,5,0,1,0,0,0,2147483647,2147483647,0,0,0,0],"split_type":[0,0,0,0,0,0,0,0,0,0,0,0,0,0,0,0,0,0,0],"sum_hessian":[1.129494E2,1.0606578E2,6.8836236E0,9.085474E1,1.52110405E1,1.7483248E0,5.1352987E0,1.5055544E1,7.5799194E1,4.1221166E0,1.1088923E1,1.2105448E0,1.3844999E1,2.663113E0,1.4590036E0,1.9595722E0,9.129352E0,1.014931E1,3.695689E0],"tree_param":{"num_deleted":"2","num_feature":"21","num_nodes":"19","size_leaf_vector":"0"}},{"base_weights":[-1.0077705E0,-1.1710136E0,1.1077135E0,-4.0421075E-1,-1.338815E0,1.5029566E-1,1.2771379E0,-8.654483E-1,6.7649347E-1,-7.14226E-1,-1.3914105E0,-9.3654495E-1,-4.2783413E-2,1.0363957E0,-4.9998957E-1,-9.5845175E-1,4.4100103E-1,-4.393632E-1,-1.4004648E0,-1.1833849E-1,-1.0098802E0,1.309148E0,6.010178E-2,6.86987E-2,-1.1591774E0],"categories":[],"categories_nodes":[],"categories_segments":[],"categories_sizes":[],"default_left":[1,1,1,1,1,0,0,1,1,1,1,1,1,1,0,1,0,1,1,1,1,0,0,0,0],"id":39,"left_children":[1,3,5,7,9,-1,-1,-1,13,15,-1,-1,-1,21,-1,23,-1,-1,-1,-1,-1,-1,-1,-1,-1],"loss_changes":[3.9941055E1,1.2888351E1,1.1917467E0,1.0640235E1,1.8050842E0,0E0,0E0,8.1248856E-1,3.3107004E0,2.8693624E0,5.2978516E-2,6.826811E-1,0E0,1.3527822E0,0E0,1.6205335E0,0E0,0E0,0E0,0E0,0E0,0E0,0E0,0E0,0E0],"parents":[2147483647,0,0,1,1,2,2,3,3,4,4,7,7,8,8,9,9,10,10,11,11,13,13,15,15],"right_children":[2,4,6,8,10,-1,-1,-1,14,16,-1,-1,-1,22,-1,24,-1,-1,-1,-1,-1,-1,-1,-1,-1],"split_conditions":[5E-1,5E-1,5E-1,7.25E1,5E-1,1.5029566E-3,1.2771378E-2,-8.654483E-3,8.25E1,5E-1,-1.3914105E-2,-9.36545E-3,-4.278341E-4,5E-1,-4.9998956E-3,3.65E1,4.4100103E-3,-4.393632E-3,-1.4004648E-2,-1.1833848E-3,-1.0098802E-2,1.3091479E-2,6.010178E-4,6.8698695E-4,-1.1591774E-2],"split_indices":[14,1,9,0,2,0,0,10,0,12,5,2147483647,2147483647,11,0,0,0,2147483647,2147483647,2147483647,2147483647,0,0,0,0],"split_type":[0,0,0,0,0,0,0,0,0,0,0,0,0,0,0,0,0,0,0,0,0,0,0,0,0],"sum_hessian":[1.10901634E2,1.0337135E2,7.5302796E0,1.91716E1,8.419975E1,1.415933E0,6.1143465E0,1.3576443E1,5.595157E0,7.671997E0,7.6527756E1,1.2369052E1,1.2073909E0,4.375657E0,1.2195001E0,6.473726E0,1.1982709E0,1.1875124E0,7.534024E1,1.2324272E0,1.1136624E1,3.1536648E0,1.2219923E0,1.1658101E0,5.3079157E0],"tree_param":{"num_deleted":"6","num_feature":"21","num_nodes":"25","size_leaf_vector":"0"}},{"base_weights":[-1.0192932E0,-1.1823477E0,1.0220351E0,-1.3054799E0,-5.1831734E-1,-2.0765454E-2,1.2332399E0,-1.3283442E0,-5.38924E-1,5.8588326E-1,-1.0823327E0,-5.4601544E-1,-1.3439523E0,4.0164536E-1,-1.0411785E0,8.415143E-1,-3.2388803E-1,4.0563238E-1,-1.2779782E0,1.0446669E0,1.6043724E-1],"categories":[],"categories_nodes":[],"categories_segments":[],"categories_sizes":[],"default_left":[1,1,1,1,1,0,0,1,1,1,1,1,1,0,0,1,0,0,0,1,1],"id":40,"left_children":[1,3,5,7,9,-1,-1,-1,13,15,17,-1,-1,-1,-1,-1,-1,-1,-1,-1,-1],"loss_changes":[3.926197E1,8.017639E0,2.006258E0,8.447418E-1,1.2026039E1,0E0,0E0,3.136139E-1,2.4314184E0,1.8617208E0,4.145281E0,0E0,0E0,0E0,0E0,6.0892105E-1,0E0,0E0,0E0,0E0,0E0],"parents":[2147483647,0,0,1,1,2,2,3,3,4,4,7,7,8,8,9,9,10,10,15,15],"right_children":[2,4,6,8,10,-1,-1,-1,14,16,18,-1,-1,-1,-1,-1,-1,-1,-1,-1,-1],"split_conditions":[5E-1,7.25E1,5.05E1,5E-1,8.15E1,-2.0765454E-4,1.2332398E-2,-1.3283442E-2,5E-1,5E-1,5E-1,-5.4601543E-3,-1.3439523E-2,4.0164534E-3,-1.0411784E-2,8.415143E-3,-3.2388803E-3,4.056324E-3,-1.2779782E-2,1.0446669E-2,1.6043724E-3],"split_indices":[14,0,0,16,0,0,0,5,4,6,9,2147483647,2147483647,0,0,1,0,0,0,2147483647,2147483647],"split_type":[0,0,0,0,0,0,0,0,0,0,0,0,0,0,0,0,0,0,0,0,0],"sum_hessian":[1.1332734E2,1.0533438E2,7.9929585E0,8.804251E1,1.7291866E1,1.4980718E0,6.494887E0,8.4780846E1,3.2616684E0,5.833184E0,1.1458682E1,2.3622015E0,8.241865E1,1.2051344E0,2.056534E0,4.612244E0,1.2209395E0,1.2068423E0,1.025184E1,3.1413827E0,1.4708616E0],"tree_param":{"num_deleted":"4","num_feature":"21","num_nodes":"21","size_leaf_vector":"0"}},{"base_weights":[-1.0348667E0,-1.1535683E0,7.7108335E-1,-4.9863148E-1,-1.2869719E0,-6.757971E-1,1.1639341E0,-9.149279E-1,3.2406127E-1,-2.0026848E-1,-1.3119223E0,-9.977206E-1,-4.8155975E-2,6.602286E-1,-6.1144674E-1,-8.3397174E-1,-1.3495028E0,-1.1059369E0,-4.496675E-1,9.811485E-1,-3.046154E-1,-9.7183657E-1,3.5082288E-2],"categories":[],"categories_nodes":[],"categories_segments":[],"categories_sizes":[],"default_left":[1,1,1,1,1,0,0,1,1,0,1,1,1,1,0,1,0,1,1,0,0,0,0],"id":41,"left_children":[1,3,5,7,9,-1,-1,-1,13,-1,15,-1,-1,19,-1,21,-1,-1,-1,-1,-1,-1,-1],"loss_changes":[2.5109886E1,8.656006E0,5.0880713E0,7.0230346E0,2.1172028E0,0E0,0E0,9.0659904E-1,2.7112684E0,0E0,4.1253662E-1,2.1986866E-1,0E0,2.1191423E0,0E0,1.0955739E0,0E0,0E0,0E0,0E0,0E0,0E0,0E0],"parents":[2147483647,0,0,1,1,2,2,3,3,4,4,7,7,8,8,10,10,11,11,13,13,15,15],"right_children":[2,4,6,8,10,-1,-1,-1,14,-1,16,-1,-1,20,-1,22,-1,-1,-1,-1,-1,-1,-1],"split_conditions":[5E-1,5E-1,5.05E1,6.65E1,5E-1,-6.757971E-3,1.1639341E-2,-9.1492785E-3,8.25E1,-2.0026846E-3,5E-1,-9.977206E-3,-4.8155975E-4,5E-1,-6.114467E-3,5E-1,-1.3495028E-2,-1.1059369E-2,-4.496675E-3,9.811484E-3,-3.046154E-3,-9.718365E-3,3.5082287E-4],"split_indices":[14,1,0,0,5,0,0,10,0,0,2,2147483647,2147483647,6,0,10,0,2147483647,2147483647,0,0,0,0],"split_type":[0,0,0,0,0,0,0,0,0,0,0,0,0,0,0,0,0,0,0,0,0,0,0],"sum_hessian":[1.11984406E2,1.054168E2,6.5676045E0,1.864045E1,8.677635E1,1.2486292E0,5.318975E0,1.2302874E1,6.3375754E0,2.1502411E0,8.462611E1,1.109228E1,1.2105938E0,4.878708E0,1.4588679E0,7.85954E0,7.676657E1,8.413122E0,2.6791575E0,3.6483274E0,1.2303804E0,6.6813545E0,1.1781852E0],"tree_param":{"num_deleted":"4","num_feature":"21","num_nodes":"23","size_leaf_vector":"0"}},{"base_weights":[-1.0014117E0,-1.1387148E0,9.5028794E-1,-3.7922654E-1,-1.3200778E0,-4.0562907E-1,1.3236268E0,-9.3785846E-1,7.563015E-1,-7.921373E-1,-1.3708467E0,-1.0295836E-2,-1.0170051E0,1.0596375E0,-4.8792124E-1,-8.5993916E-1,-2.8286442E-1,-1.2316943E0,-3.666645E-1,1.1787027E-1,1.2525641E0,-5.3316027E-1,-1.1154174E0],"categories":[],"categories_nodes":[],"categories_segments":[],"categories_sizes":[],"default_left":[1,1,1,1,1,0,0,1,1,1,0,0,1,1,0,1,1,0,0,0,0,1,1],"id":42,"left_children":[1,3,5,7,9,-1,-1,11,13,-1,-1,-1,17,19,-1,-1,-1,-1,-1,-1,-1,-1,-1],"loss_changes":[3.1591309E1,1.4213516E1,4.6008854E0,1.4661518E1,1.2145538E0,0E0,0E0,1.104579E0,3.463192E0,9.8538876E-2,0E0,0E0,1.500885E0,1.0499535E0,0E0,9.3651295E-2,0E0,0E0,0E0,0E0,0E0,0E0,0E0],"parents":[2147483647,0,0,1,1,2,2,3,3,4,4,7,7,8,8,9,9,12,12,13,13,15,15],"right_children":[2,4,6,8,10,-1,-1,12,14,-1,-1,-1,18,20,-1,-1,-1,-1,-1,-1,-1,-1,-1],"split_conditions":[5E-1,5E-1,5.05E1,6.65E1,5E-1,-4.0562907E-3,1.32362675E-2,5E-1,8.25E1,-7.9213735E-3,-1.3708468E-2,-1.0295836E-4,5.35E1,5E-1,-4.8792125E-3,-8.599391E-3,-2.8286441E-3,-1.2316943E-2,-3.666645E-3,1.1787027E-3,1.252564E-2,-5.3316024E-3,-1.1154173E-2],"split_indices":[14,1,0,0,4,0,0,5,0,0,0,0,0,2,0,2147483647,2147483647,0,0,0,0,2147483647,2147483647],"split_type":[0,0,0,0,0,0,0,0,0,0,0,0,0,0,0,0,0,0,0,0,0,0,0],"sum_hessian":[1.1285113E2,1.05822975E2,7.028155E0,2.0994772E1,8.48282E1,1.4986752E0,5.52948E0,1.4188637E1,6.806134E0,8.898321E0,7.592988E1,1.2043445E0,1.2984292E1,5.591343E0,1.214791E0,7.245175E0,1.6531463E0,9.089695E0,3.894597E0,1.2245727E0,4.3667703E0,4.533431E0,2.7117438E0],"tree_param":{"num_deleted":"4","num_feature":"21","num_nodes":"23","size_leaf_vector":"0"}},{"base_weights":[-1.0537683E0,-1.1823324E0,9.062971E-1,-4.8111102E-1,-1.3439257E0,-2.402301E-1,1.1631078E0,-9.762666E-1,4.6686986E-1,-2.8359464E-1,-1.3697354E0,-1.02396775E-2,-1.0605363E0,7.8427994E-1,-6.0559374E-1,-8.4818023E-1,3.9598435E-1,1.0490507E0,-1.0562953E-1],"categories":[],"categories_nodes":[],"categories_segments":[],"categories_sizes":[],"default_left":[1,1,1,1,1,0,0,1,1,1,0,0,0,1,0,0,0,0,0],"id":43,"left_children":[1,3,5,7,9,-1,-1,11,13,15,-1,-1,-1,17,-1,-1,-1,-1,-1],"loss_changes":[3.0512146E1,1.182608E1,2.5635347E0,1.0863644E1,2.044464E0,0E0,0E0,1.20117E0,3.2949882E0,1.6302558E0,0E0,0E0,0E0,1.719645E0,0E0,0E0,0E0,0E0,0E0],"parents":[2147483647,0,0,1,1,2,2,3,3,4,4,7,7,8,8,9,9,13,13],"right_children":[2,4,6,8,10,-1,-1,12,14,16,-1,-1,-1,18,-1,-1,-1,-1,-1],"split_conditions":[5E-1,5E-1,5.05E1,6.65E1,5E-1,-2.402301E-3,1.1631077E-2,5E-1,8.25E1,4.35E1,-1.3697353E-2,-1.0239677E-4,-1.0605362E-2,5E-1,-6.055937E-3,-8.481802E-3,3.9598434E-3,1.0490507E-2,-1.0562954E-3],"split_indices":[14,1,0,0,5,0,0,5,0,0,0,0,0,6,0,0,0,0,0],"split_type":[0,0,0,0,0,0,0,0,0,0,0,0,0,0,0,0,0,0,0],"sum_hessian":[1.1583051E2,1.0907301E2,6.7574997E0,2.1172771E1,8.7900246E1,1.2484367E0,5.5090632E0,1.3888566E1,7.284205E0,2.3736136E0,8.5526634E1,1.2043209E0,1.2684245E1,5.828032E0,1.4561732E0,1.1609852E0,1.2126284E0,4.3538284E0,1.4742036E0],"tree_param":{"num_deleted":"0","num_feature":"21","num_nodes":"19","size_leaf_vector":"0"}},{"base_weights":[-9.9441457E-1,-1.1466266E0,8.9903605E-1,-4.299232E-1,-1.3133197E0,-1.9070366E-1,1.1913754E0,-8.728582E-1,5.852854E-1,-6.7725855E-1,-1.3570869E0,3.6925626E-1,1.2871369E0,-9.4568217E-1,-1.2067716E-2,8.905285E-1,-4.824215E-1,9.048826E-2,-8.3305603E-1,-1.6009358E-1,-1.0598971E0,1.105079E0,4.2527437E-2],"categories":[],"categories_nodes":[],"categories_segments":[],"categories_sizes":[],"default_left":[1,1,1,1,1,0,1,1,1,1,0,1,1,1,0,1,0,1,1,0,0,0,0],"id":44,"left_children":[1,3,5,7,9,-1,-1,13,15,-1,-1,-1,-1,19,-1,21,-1,-1,-1,-1,-1,-1,-1],"loss_changes":[3.3401085E1,1.1907837E1,3.068131E0,1.0037717E1,1.4252472E0,0E0,8.91428E-2,9.38406E-1,2.7221522E0,9.626472E-1,0E0,0E0,0E0,1.0826359E0,0E0,1.0122061E0,0E0,0E0,0E0,0E0,0E0,0E0,0E0],"parents":[2147483647,0,0,1,1,2,2,3,3,4,4,6,6,7,7,8,8,9,9,13,13,15,15],"right_children":[2,4,6,8,10,-1,-1,14,16,-1,-1,-1,-1,20,-1,22,-1,-1,-1,-1,-1,-1,-1],"split_conditions":[5E-1,5E-1,5.5E1,7.25E1,5E-1,-1.9070365E-3,1.1913753E-2,5E-1,8.25E1,-6.772585E-3,-1.3570868E-2,3.6925625E-3,1.2871369E-2,5E-1,-1.20677156E-4,5E-1,-4.8242146E-3,9.048826E-4,-8.33056E-3,-1.6009357E-3,-1.0598971E-2,1.1050791E-2,4.2527437E-4],"split_indices":[14,1,0,0,2,0,9,10,0,0,0,2147483647,2147483647,8,0,11,0,2147483647,2147483647,0,0,0,0],"split_type":[0,0,0,0,0,0,0,0,0,0,0,0,0,0,0,0,0,0,0,0,0,0,0],"sum_hessian":[1.1131628E2,1.0339862E2,7.917657E0,2.0186237E1,8.321238E1,1.7482927E0,6.1693645E0,1.4151962E1,6.0342755E0,6.4177947E0,7.6794586E1,1.1502644E0,5.0191E0,1.295715E1,1.1948119E0,4.821746E0,1.2125297E0,1.1533673E0,5.264427E0,1.9495459E0,1.1007605E1,3.6061947E0,1.2155511E0],"tree_param":{"num_deleted":"4","num_feature":"21","num_nodes":"23","size_leaf_vector":"0"}},{"base_weights":[-9.797434E-1,-1.1357765E0,9.834912E-1,-4.6341705E-1,-1.2826437E0,-2.0892975E-1,1.2128795E0,-7.169301E-1,1.2461029E0,-5.752886E-1,-1.3455654E0,-9.4231564E-1,8.44755E-2,-8.046541E-1,4.6200147E-1,4.121157E-1,-4.9426395E-1,9.85886E-2,-9.866043E-1],"categories":[],"categories_nodes":[],"categories_segments":[],"categories_sizes":[],"default_left":[1,1,1,1,1,0,0,1,0,1,0,0,1,1,0,0,0,0,0],"id":45,"left_children":[1,3,5,7,9,-1,-1,11,-1,13,-1,-1,15,17,-1,-1,-1,-1,-1],"loss_changes":[3.49039E1,9.54097E0,2.621214E0,9.546501E0,2.9500122E0,0E0,0E0,3.3349438E0,0E0,2.4135373E0,0E0,0E0,1.127852E0,1.3122067E0,0E0,0E0,0E0,0E0,0E0],"parents":[2147483647,0,0,1,1,2,2,3,3,4,4,7,7,9,9,12,12,13,13],"right_children":[2,4,6,8,10,-1,-1,12,-1,14,-1,-1,16,18,-1,-1,-1,-1,-1],"split_conditions":[5E-1,5E-1,4.55E1,5E-1,5E-1,-2.0892974E-3,1.21287955E-2,7.35E1,1.2461029E-2,5E-1,-1.34556545E-2,-9.423156E-3,8.15E1,3.65E1,4.6200147E-3,4.121157E-3,-4.9426393E-3,9.85886E-4,-9.866042E-3],"split_indices":[14,1,0,15,2,0,0,0,0,12,0,0,0,0,0,0,0,0,0],"split_type":[0,0,0,0,0,0,0,0,0,0,0,0,0,0,0,0,0,0,0],"sum_hessian":[1.092958E2,1.0163924E2,7.6565614E0,1.8966362E1,8.2672874E1,1.2496645E0,6.406897E0,1.7022621E1,1.9437419E0,7.5818667E0,7.509101E1,1.314884E1,3.8737803E0,6.3926067E0,1.1892602E0,2.6573117E0,1.2164686E0,1.1486413E0,5.243965E0],"tree_param":{"num_deleted":"0","num_feature":"21","num_nodes":"19","size_leaf_vector":"0"}},{"base_weights":[-9.966639E-1,-1.1227684E0,8.724791E-1,-1.2460203E0,-4.4037202E-1,-8.3706126E-2,1.2567331E0,-8.525059E-1,-1.3084519E0,6.476165E-1,-9.5603615E-1,-1.0386313E0,-6.1965313E-2,-8.247318E-1,-1.3445837E0,8.7508774E-1,2.0570874E-2,-1.143273E0,4.325949E-1,-1.5494773E-3,-1.1523405E0,7.7069354E-1,-7.295417E-1,1.8192886E-1,-1.1165514E0,1.1637799E0,3.826236E-2,-3.660094E-1,-1.1950659E0],"categories":[],"categories_nodes":[],"categories_segments":[],"categories_sizes":[],"default_left":[1,1,1,1,1,0,0,1,1,1,1,1,1,1,0,1,0,1,0,0,0,0,0,0,0,0,0,1,1],"id":46,"left_children":[1,3,5,7,9,-1,-1,11,13,15,17,19,21,23,-1,25,-1,-1,-1,-1,-1,-1,-1,-1,-1,-1,-1,-1,-1],"loss_changes":[2.750576E1,8.355103E0,2.9252892E0,1.0740356E0,1.0573097E1,0E0,0E0,2.1534595E0,2.0274353E-1,8.8077354E-1,3.729229E0,1.4294758E0,2.7500856E0,2.4952602E0,0E0,1.0667076E0,0E0,1.4965057E-2,0E0,0E0,0E0,0E0,0E0,0E0,0E0,0E0,0E0,0E0,0E0],"parents":[2147483647,0,0,1,1,2,2,3,3,4,4,7,7,8,8,9,9,10,10,11,11,12,12,13,13,15,15,17,17],"right_children":[2,4,6,8,10,-1,-1,12,14,16,18,20,22,24,-1,26,-1,-1,-1,-1,-1,-1,-1,-1,-1,-1,-1,-1,-1],"split_conditions":[5E-1,7.25E1,7.65E1,5E-1,8.15E1,-8.3706126E-4,1.256733E-2,5.95E1,5E-1,5E-1,5E-1,5E-1,6.45E1,4.05E1,-1.3445837E-2,5E-1,2.0570874E-4,-1.143273E-2,4.3259487E-3,-1.5494774E-5,-1.1523405E-2,7.706935E-3,-7.295417E-3,1.8192886E-3,-1.1165514E-2,1.16377985E-2,3.8262358E-4,-3.660094E-3,-1.1950659E-2],"split_indices":[14,0,0,1,0,0,0,0,2,1,12,5,0,0,0,11,0,4,0,0,0,0,0,0,0,0,0,2147483647,2147483647],"split_type":[0,0,0,0,0,0,0,0,0,0,0,0,0,0,0,0,0,0,0,0,0,0,0,0,0,0,0,0,0],"sum_hessian":[1.11538635E2,1.04863205E2,6.675434E0,8.812113E1,1.674207E1,2.1378143E0,4.5376196E0,1.4072882E1,7.404825E1,5.30123E0,1.1440839E1,1.1136965E1,2.9359174E0,6.8026376E0,6.724561E1,3.5997782E0,1.701452E0,1.0237191E1,1.2036469E0,1.2005956E0,9.936369E0,1.2376939E0,1.6982235E0,1.61345E0,5.1891875E0,2.3859527E0,1.2138255E0,1.1434865E0,9.093705E0],"tree_param":{"num_deleted":"2","num_feature":"21","num_nodes":"29","size_leaf_vector":"0"}},{"base_weights":[-9.597811E-1,-1.0963105E0,9.217976E-1,-4.9493983E-1,-1.224681E0,-1.265277E-2,1.1409774E0,-7.167385E-1,1.171923E0,-2.6561576E-1,-1.2491971E0,-9.9739385E-1,-4.5211293E-2,-8.304022E-1,4.0330118E-1,-1.2831591E0,-5.7959247E-1,-4.1071817E-1,-1.1817949E0,6.1888677E-1,-3.2499358E-1,5.500637E-2,-7.531672E-1],"categories":[],"categories_nodes":[],"categories_segments":[],"categories_sizes":[],"default_left":[1,1,1,1,1,0,0,1,0,1,1,1,1,0,0,0,1,1,1,0,0,1,1],"id":47,"left_children":[1,3,5,7,9,-1,-1,11,-1,13,15,-1,19,-1,-1,-1,-1,-1,-1,-1,-1,-1,-1],"loss_changes":[2.9107391E1,7.301285E0,1.6411662E0,8.122086E0,1.6369705E0,0E0,0E0,3.3481388E0,0E0,1.6032082E0,1.1068802E0,8.831463E-1,1.3817712E0,0E0,0E0,0E0,6.7500436E-1,0E0,0E0,0E0,0E0,0E0,0E0],"parents":[2147483647,0,0,1,1,2,2,3,3,4,4,7,7,9,9,10,10,11,11,12,12,16,16],"right_children":[2,4,6,8,10,-1,-1,12,-1,14,16,-1,20,-1,-1,-1,-1,-1,-1,-1,-1,-1,-1],"split_conditions":[5E-1,5E-1,5.05E1,5E-1,5E-1,-1.265277E-4,1.14097735E-2,6.65E1,1.1719231E-2,4.6E1,5E-1,-9.973939E-3,5E-1,-8.304021E-3,4.033012E-3,-1.2831591E-2,-5.7959245E-3,-4.1071814E-3,-1.1817949E-2,6.1888676E-3,-3.2499358E-3,5.500637E-4,-7.531672E-3],"split_indices":[14,1,0,15,5,0,0,0,0,0,10,9,8,0,0,0,2,2147483647,2147483647,0,0,2147483647,2147483647],"split_type":[0,0,0,0,0,0,0,0,0,0,0,0,0,0,0,0,0,0,0,0,0,0,0],"sum_hessian":[1.0837262E2,1.01430084E2,6.94253E0,1.8696964E1,8.273312E1,1.4980445E0,5.4444857E0,1.7004316E1,1.6926471E0,2.3571258E0,8.0376E1,1.1650071E1,5.3542457E0,1.1471446E0,1.2099811E0,7.5624084E1,4.751917E0,3.5578868E0,8.092184E0,1.2278236E0,4.126422E0,1.1673001E0,3.584617E0],"tree_param":{"num_deleted":"4","num_feature":"21","num_nodes":"23","size_leaf_vector":"0"}},{"base_weights":[-9.8622495E-1,-1.0179517E-1,-1.2410804E0,-9.393489E-1,7.032669E-1,-4.6023954E-2,-1.2744025E0,3.8993382E-3,-1.0348909E0,2.5772128E-1,1.3469712E0,-8.323439E-1,7.385134E-1,-1.2926073E0,-1.4656923E-3,8.200004E-1,-2.779365E-1,1.9441128E-1,1.0972528E0,1.22252434E-1,-9.3428767E-1],"categories":[],"categories_nodes":[],"categories_segments":[],"categories_sizes":[],"default_left":[1,1,1,1,1,1,1,0,0,1,0,0,0,0,0,1,1,1,1,0,0],"id":48,"left_children":[1,3,5,7,9,11,13,-1,-1,15,-1,-1,-1,-1,-1,-1,19,-1,-1,-1,-1],"loss_changes":[2.476281E1,1.8050587E1,3.3513184E0,1.1817417E0,3.5883493E0,2.6877024E0,1.9277802E0,0E0,0E0,3.0427704E0,0E0,0E0,0E0,0E0,0E0,6.2143564E-1,1.5675604E0,0E0,0E0,0E0,0E0],"parents":[2147483647,0,0,1,1,2,2,3,3,4,4,5,5,6,6,9,9,15,15,16,16],"right_children":[2,4,6,8,10,12,14,-1,-1,16,-1,-1,-1,-1,-1,-1,20,-1,-1,-1,-1],"split_conditions":[5E-1,5.9E1,5E-1,5E-1,5E-1,4.9E1,5E-1,3.899338E-5,-1.0348909E-2,5E-1,1.3469711E-2,-8.323438E-3,7.3851338E-3,-1.2926073E-2,-1.4656923E-5,8.200004E-3,8.15E1,1.9441127E-3,1.0972528E-2,1.2225243E-3,-9.342876E-3],"split_indices":[1,0,5,5,6,0,14,0,0,9,0,0,0,0,0,0,0,2147483647,2147483647,0,0],"split_type":[0,0,0,0,0,0,0,0,0,0,0,0,0,0,0,0,0,0,0,0,0],"sum_hessian":[1.0942127E2,2.4790327E1,8.463094E1,1.2068231E1,1.2722096E1,2.360373E0,8.227058E1,1.1981874E0,1.0870043E1,8.345828E0,4.376268E0,1.1484139E0,1.2119592E0,8.109534E1,1.1752331E0,3.8127558E0,4.5330725E0,1.6932757E0,2.1194801E0,3.3215835E0,1.2114891E0],"tree_param":{"num_deleted":"2","num_feature":"21","num_nodes":"21","size_leaf_vector":"0"}},{"base_weights":[-9.750326E-1,-1.1091943E0,8.96911E-1,-1.2469279E0,-3.1309196E-1,-2.2829401E-1,1.1429431E0,-8.502495E-1,-1.312538E0,7.154683E-1,-9.3242913E-1,3.8781036E-3,-9.235128E-1,-8.4482926E-1,-1.3507894E0,9.398952E-1,2.8612366E-2,-1.1515505E0,4.400498E-1,-1.0971711E0,-3.7439558E-1,1.0564629E-1,-1.0142019E0,1.2160679E0,3.385632E-2],"categories":[],"categories_nodes":[],"categories_segments":[],"categories_sizes":[],"default_left":[1,1,1,1,1,0,0,1,1,1,1,1,1,1,0,1,0,0,0,1,1,0,0,0,0],"id":49,"left_children":[1,3,5,7,9,-1,-1,-1,13,15,17,-1,-1,21,-1,23,-1,-1,-1,-1,-1,-1,-1,-1,-1],"loss_changes":[2.8521255E1,1.0873016E1,2.4432E0,1.154419E0,1.1169069E1,0E0,0E0,9.559984E-1,1.651001E-1,1.0154328E0,3.7319012E0,0E0,9.2633533E-1,1.4255857E0,0E0,1.226244E0,0E0,0E0,0E0,0E0,0E0,0E0,0E0,0E0,0E0],"parents":[2147483647,0,0,1,1,2,2,3,3,4,4,7,7,8,8,9,9,10,10,12,12,13,13,15,15],"right_children":[2,4,6,8,10,-1,-1,-1,14,16,18,-1,-1,22,-1,24,-1,-1,-1,-1,-1,-1,-1,-1,-1],"split_conditions":[5E-1,7.25E1,5.05E1,5E-1,8.15E1,-2.28294E-3,1.1429431E-2,-8.5024955E-3,5E-1,5E-1,5E-1,3.8781036E-5,-9.235128E-3,3.65E1,-1.3507894E-2,5E-1,2.8612366E-4,-1.1515505E-2,4.400498E-3,-1.097171E-2,-3.7439556E-3,1.0564629E-3,-1.0142019E-2,1.2160678E-2,3.385632E-4],"split_indices":[14,0,0,1,0,0,0,5,2,1,12,2147483647,2147483647,0,0,11,0,0,0,2147483647,2147483647,0,0,0,0],"split_type":[0,0,0,0,0,0,0,0,0,0,0,0,0,0,0,0,0,0,0,0,0,0,0,0,0],"sum_hessian":[1.08604454E2,1.0172156E2,6.8828936E0,8.623565E1,1.5485908E1,1.2478883E0,5.6350055E0,1.4220112E1,7.201554E1,5.761807E0,9.7241E0,1.1981969E0,1.30219145E1,7.1898456E0,6.482569E1,4.06514E0,1.6966674E0,8.524157E0,1.1999435E0,9.134931E0,3.886984E0,1.1443415E0,6.045504E0,2.8532503E0,1.2118894E0],"tree_param":{"num_deleted":"4","num_feature":"21","num_nodes":"25","size_leaf_vector":"0"}},{"base_weights":[-9.074403E-1,-1.0476501E0,1.0382739E0,-1.2038E0,-2.376767E-1,-2.0139322E-1,1.3021473E0,-8.427476E-1,-1.2622927E0,7.955952E-1,-8.921443E-1,-1.0434341E0,-2.5609997E-1,1.0164623E0,2.8431563E-2,2.7376348E-2,-9.9959403E-1,8.516702E-3,-1.1746039E0,4.0729073E-1,-5.645079E-1],"categories":[],"categories_nodes":[],"categories_segments":[],"categories_sizes":[],"default_left":[1,1,1,1,1,0,0,1,0,1,1,1,1,0,0,0,0,0,0,0,0],"id":50,"left_children":[1,3,5,7,9,-1,-1,11,-1,13,15,17,19,-1,-1,-1,-1,-1,-1,-1,-1],"loss_changes":[3.103952E1,1.2729469E1,2.8405828E0,7.530594E-1,1.2800078E1,0E0,0E0,1.4991083E0,0E0,1.2353916E0,1.1553993E0,1.507618E0,1.283467E0,0E0,0E0,0E0,0E0,0E0,0E0,0E0,0E0],"parents":[2147483647,0,0,1,1,2,2,3,3,4,4,7,7,9,9,10,10,11,11,12,12],"right_children":[2,4,6,8,10,-1,-1,12,-1,14,16,18,20,-1,-1,-1,-1,-1,-1,-1,-1],"split_conditions":[5E-1,7.25E1,4.55E1,5E-1,8.15E1,-2.0139322E-3,1.3021473E-2,5.35E1,-1.2622927E-2,5E-1,5E-1,5E-1,6.25E1,1.0164623E-2,2.843156E-4,2.7376346E-4,-9.99594E-3,8.516702E-5,-1.1746039E-2,4.0729074E-3,-5.645079E-3],"split_indices":[14,0,0,1,0,0,0,0,0,1,9,5,0,0,0,0,0,0,0,0,0],"split_type":[0,0,0,0,0,0,0,0,0,0,0,0,0,0,0,0,0,0,0,0,0],"sum_hessian":[1.0879057E2,1.01908516E2,6.882055E0,8.50299E1,1.687862E1,1.2493651E0,5.63269E0,1.4002955E1,7.102695E1,6.4615316E0,1.0417088E1,9.853521E0,4.149434E0,4.7647843E0,1.6967471E0,1.1678878E0,9.2492E0,1.196106E0,8.657415E0,1.2151031E0,2.934331E0],"tree_param":{"num_deleted":"0","num_feature":"21","num_nodes":"21","size_leaf_vector":"0"}},{"base_weights":[-9.0243775E-1,-1.0394518E0,8.493889E-1,-3.1828234E-1,-1.2090256E0,-1.8547028E-1,1.1419945E0,-7.7210385E-1,7.0127416E-1,-2.5141945E-1,-1.2337147E0,3.3369315E-1,1.2431412E0,-9.4424915E-1,-2.6014495E-1,9.846607E-1,-2.2119194E-1,-8.1317466E-1,4.050976E-1,-1.2570635E0,-7.00687E-1,8.470195E-3,-1.0635229E0,3.512339E-1,-5.409605E-1],"categories":[],"categories_nodes":[],"categories_segments":[],"categories_sizes":[],"default_left":[1,1,1,1,1,0,1,1,1,1,1,1,1,1,1,0,0,0,0,1,1,0,0,0,0],"id":51,"left_children":[1,3,5,7,9,-1,-1,13,15,17,-1,-1,-1,21,23,-1,-1,-1,-1,-1,-1,-1,-1,-1,-1],"loss_changes":[2.7391754E1,1.2196587E1,2.8043175E0,1.0231714E1,1.6506577E0,0E0,1.4227867E-1,1.0735283E0,2.0411081E0,1.5614004E0,1.2226868E-1,0E0,0E0,1.2386923E0,1.0736332E0,0E0,0E0,0E0,0E0,0E0,0E0,0E0,0E0,0E0,0E0],"parents":[2147483647,0,0,1,1,2,2,3,3,4,4,6,6,7,7,8,8,9,9,10,10,13,13,14,14],"right_children":[2,4,6,8,10,-1,-1,14,16,18,-1,-1,-1,22,24,-1,-1,-1,-1,-1,-1,-1,-1,-1,-1],"split_conditions":[5E-1,5E-1,5.05E1,7.25E1,5E-1,-1.8547028E-3,1.1419944E-2,5.35E1,8.15E1,4.6E1,-1.2337146E-2,3.3369313E-3,1.2431411E-2,5E-1,5E-1,9.846606E-3,-2.2119193E-3,-8.131746E-3,4.050976E-3,-1.25706345E-2,-7.0068697E-3,8.4701955E-5,-1.0635229E-2,3.512339E-3,-5.409605E-3],"split_indices":[14,1,0,0,5,0,9,0,0,0,10,2147483647,2147483647,5,4,0,0,0,0,2147483647,2147483647,0,0,0,0],"split_type":[0,0,0,0,0,0,0,0,0,0,0,0,0,0,0,0,0,0,0,0,0,0,0,0,0],"sum_hessian":[1.0944204E2,1.018804E2,7.5616403E0,1.9943005E1,8.193739E1,1.7474763E0,5.8141637E0,1.3968223E1,5.974782E0,2.3405073E0,7.9596886E1,1.1247742E0,4.6893897E0,9.821406E0,4.146816E0,4.5190754E0,1.4557064E0,1.1326904E0,1.2078168E0,7.49552E1,4.6416893E0,1.196127E0,8.625279E0,1.2262708E0,2.920545E0],"tree_param":{"num_deleted":"4","num_feature":"21","num_nodes":"25","size_leaf_vector":"0"}},{"base_weights":[-9.557109E-1,-1.0915756E0,7.9352236E-1,-1.2273788E0,-4.356866E-1,-3.939732E-1,1.1241269E0,-1.2424468E0,-5.7847816E-1,6.961622E-1,-1.0123994E0,3.290638E-1,1.2273064E0,-7.949198E-1,-1.7580606E-1,9.129054E-1,3.302595E-2,2.6366287E-1,-1.1994642E0],"categories":[],"categories_nodes":[],"categories_segments":[],"categories_sizes":[],"default_left":[1,1,1,1,1,0,1,1,1,1,1,1,1,1,1,1,1,0,0],"id":52,"left_children":[1,3,5,-1,9,-1,-1,-1,-1,-1,17,-1,-1,-1,-1,-1,-1,-1,-1],"loss_changes":[2.5568123E1,8.093475E0,3.611174E0,6.0569763E-2,1.2563115E1,0E0,1.3528728E-1,0E0,1.8097627E-1,9.3637466E-1,3.2862597E0,0E0,0E0,0E0,0E0,0E0,0E0,0E0,0E0],"parents":[2147483647,0,0,1,1,2,2,3,3,4,4,6,6,8,8,9,9,10,10],"right_children":[2,4,6,-1,10,-1,-1,-1,-1,-1,18,-1,-1,-1,-1,-1,-1,-1,-1],"split_conditions":[5E-1,7.25E1,5.05E1,-1.2273788E-2,8.15E1,-3.939732E-3,1.1241269E-2,-1.2424467E-2,-5.7847816E-3,6.9616223E-3,5E-1,3.2906379E-3,1.2273063E-2,-7.949198E-3,-1.7580605E-3,9.129054E-3,3.302595E-4,2.6366287E-3,-1.1994642E-2],"split_indices":[14,0,0,16,0,0,9,2147483647,2147483647,1,9,2147483647,2147483647,2147483647,2147483647,2147483647,2147483647,0,0],"split_type":[0,0,0,0,0,0,0,0,0,0,0,0,0,0,0,0,0,0,0],"sum_hessian":[1.029385E2,9.586828E1,7.070219E0,7.870162E1,1.7166662E1,1.4979763E0,5.5722427E0,7.6021645E1,2.679974E0,5.7245727E0,1.144209E1,1.121283E0,4.4509597E0,1.1094942E0,1.57048E0,4.0305552E0,1.6940173E0,1.4105501E0,1.003154E1],"tree_param":{"num_deleted":"8","num_feature":"21","num_nodes":"19","size_leaf_vector":"0"}},{"base_weights":[-9.1557086E-1,-1.0624723E0,1.1054789E0,-2.792898E-1,-1.2324321E0,1.3904743E-1,1.2650197E0,-7.738128E-1,8.746463E-1,-1.2655149E0,-6.3329613E-1,-9.8792595E-1,-1.7560183E-1,1.1057953E0,-4.6846807E-2,-3.5681346E-1,-1.2832766E0,8.503931E-2,-8.0996513E-1,1.5121685E-2,-1.1243817E0,3.4544644E-1,-7.281614E-1],"categories":[],"categories_nodes":[],"categories_segments":[],"categories_sizes":[],"default_left":[1,1,1,1,1,0,0,1,1,1,1,1,1,0,0,1,1,1,1,0,0,0,0],"id":53,"left_children":[1,3,5,7,-1,-1,-1,11,13,-1,-1,19,21,-1,-1,-1,-1,-1,-1,-1,-1,-1,-1],"loss_changes":[3.3E1,1.3025391E1,1.019597E0,1.1635029E1,8.285904E-1,0E0,0E0,1.6162386E0,1.3788438E0,7.8380585E-1,8.690355E-1,1.3958158E0,1.6620623E0,0E0,0E0,0E0,0E0,0E0,0E0,0E0,0E0,0E0,0E0],"parents":[2147483647,0,0,1,1,2,2,3,3,4,4,7,7,8,8,9,9,10,10,11,11,12,12],"right_children":[2,4,6,8,-1,-1,-1,12,14,-1,-1,20,22,-1,-1,-1,-1,-1,-1,-1,-1,-1,-1],"split_conditions":[5E-1,5E-1,5.7E1,7.25E1,-1.2324321E-2,1.3904743E-3,1.2650196E-2,5.25E1,8.15E1,-1.2655148E-2,-6.3329614E-3,5E-1,6.45E1,1.1057952E-2,-4.6846806E-4,-3.5681345E-3,-1.28327655E-2,8.503931E-4,-8.099651E-3,1.5121685E-4,-1.1243816E-2,3.4544643E-3,-7.281614E-3],"split_indices":[14,1,0,0,10,0,0,0,0,2147483647,2147483647,5,0,0,0,2147483647,2147483647,2147483647,2147483647,0,0,0,0],"split_type":[0,0,0,0,0,0,0,0,0,0,0,0,0,0,0,0,0,0,0,0,0,0,0],"sum_hessian":[1.06194244E2,9.944063E1,6.753618E0,1.8203112E1,8.123752E1,1.2221138E0,5.5315037E0,1.2972935E1,5.230177E0,7.593249E1,5.305034E0,9.073763E0,3.8991716E0,4.021431E0,1.2087462E0,1.860049E0,7.407243E1,1.1495639E0,4.15547E0,1.1930646E0,7.880698E0,2.1997209E0,1.6994505E0],"tree_param":{"num_deleted":"6","num_feature":"21","num_nodes":"23","size_leaf_vector":"0"}},{"base_weights":[-9.180075E-1,-1.0497417E0,8.815028E-1,-1.2006956E0,-2.6187405E-1,-2.2242501E-1,1.1192129E0,-7.974E-1,-1.2658964E0,7.8055E-1,-8.250024E-1,-1.0872822E0,-5.246909E-2,9.457409E-1,1.2953011E-2,-1.0093132E0,4.5721388E-1,5.007045E-1,-5.528102E-1],"categories":[],"categories_nodes":[],"categories_segments":[],"categories_sizes":[],"default_left":[1,1,1,1,1,0,0,1,0,1,1,0,1,1,1,0,0,0,0],"id":54,"left_children":[1,3,5,7,9,-1,-1,11,-1,-1,15,-1,17,-1,-1,-1,-1,-1,-1],"loss_changes":[2.6773926E1,1.1823517E1,2.343369E0,1.2353745E0,1.1027696E1,0E0,0E0,3.0920134E0,0E0,8.395963E-1,3.290514E0,0E0,1.6982605E0,0E0,0E0,0E0,0E0,0E0,0E0],"parents":[2147483647,0,0,1,1,2,2,3,3,4,4,7,7,9,9,10,10,12,12],"right_children":[2,4,6,8,10,-1,-1,12,-1,-1,16,-1,18,-1,-1,-1,-1,-1,-1],"split_conditions":[5E-1,7.25E1,5.5E1,5E-1,8.15E1,-2.22425E-3,1.1192128E-2,5.35E1,-1.2658964E-2,7.8054997E-3,5E-1,-1.0872821E-2,6.45E1,9.457408E-3,1.295301E-4,-1.0093132E-2,4.5721387E-3,5.0070453E-3,-5.5281017E-3],"split_indices":[14,0,0,1,0,0,0,0,0,11,12,0,0,2147483647,2147483647,0,0,0,0],"split_type":[0,0,0,0,0,0,0,0,0,0,0,0,0,0,0,0,0,0,0],"sum_hessian":[1.0803945E2,1.0105808E2,6.9813657E0,8.436913E1,1.6688948E1,1.2483444E0,5.7330213E0,1.3582896E1,7.078624E1,5.7180314E0,1.0970918E1,9.447087E0,4.1358094E0,4.514424E0,1.2036076E0,9.778198E0,1.1927193E0,1.9638569E0,2.1719527E0],"tree_param":{"num_deleted":"2","num_feature":"21","num_nodes":"19","size_leaf_vector":"0"}},{"base_weights":[-9.677311E-1,-1.0761435E0,6.8771595E-1,-4.733734E-1,-1.2205715E0,-6.5961987E-1,1.0742832E0,-7.0330966E-1,1.223693E0,-1.264342E0,-8.1163704E-1,-9.873229E-1,1.03295885E-1,-2.5366536E-1,-8.8416034E-1,2.0974053E-2,-1.078756E0,7.6828116E-1,-4.5670608E-1],"categories":[],"categories_nodes":[],"categories_segments":[],"categories_sizes":[],"default_left":[1,1,1,1,1,0,0,1,0,1,1,1,1,1,1,0,0,0,0],"id":55,"left_children":[1,3,5,7,-1,-1,-1,11,-1,-1,-1,15,17,-1,-1,-1,-1,-1,-1],"loss_changes":[2.0285942E1,8.354614E0,4.512778E0,9.237108E0,4.4402313E-1,0E0,0E0,4.578293E0,0E0,0E0,2.1010113E-1,1.3636522E0,2.5829053E0,0E0,0E0,0E0,0E0,0E0,0E0],"parents":[2147483647,0,0,1,1,2,2,3,3,4,4,7,7,10,10,11,11,12,12],"right_children":[2,4,6,8,-1,-1,-1,12,-1,-1,-1,16,18,-1,-1,-1,-1,-1,-1],"split_conditions":[5E-1,5E-1,5.5E1,5E-1,-1.2205715E-2,-6.5961983E-3,1.0742832E-2,7.3E1,1.22369295E-2,-1.2643419E-2,-8.11637E-3,5E-1,5E-1,-2.5366535E-3,-8.841603E-3,2.0974052E-4,-1.078756E-2,7.6828115E-3,-4.5670606E-3],"split_indices":[14,1,0,15,0,0,0,0,0,2147483647,2147483647,5,9,2147483647,2147483647,0,0,0,0],"split_type":[0,0,0,0,0,0,0,0,0,0,0,0,0,0,0,0,0,0,0],"sum_hessian":[1.07908195E2,1.0160425E2,6.303949E0,2.0466187E1,8.113806E1,1.2479635E0,5.0559855E0,1.8539795E1,1.9263915E0,7.140356E1,9.734505E0,1.3546057E1,4.993738E0,1.6370748E0,8.097429E0,1.1903074E0,1.2355749E1,2.112858E0,2.8808804E0],"tree_param":{"num_deleted":"4","num_feature":"21","num_nodes":"19","size_leaf_vector":"0"}},{"base_weights":[-9.5013875E-1,-1.0711668E0,7.2876364E-1,-1.2066987E0,-4.9369887E-1,-6.7168164E-1,1.1014771E0,-1.224149E0,-3.4393346E-1,7.723949E-1,-6.8576545E-1,3.0746776E-1,1.2072004E0,7.772837E-2,-9.307342E-1,6.0406E-1,-3.1048986E-1,-5.412612E-1,-1.0422528E0],"categories":[],"categories_nodes":[],"categories_segments":[],"categories_sizes":[],"default_left":[1,1,1,1,1,0,1,1,1,0,1,1,1,1,1,0,0,1,1],"id":56,"left_children":[1,3,5,-1,9,-1,-1,-1,-1,-1,13,-1,-1,15,-1,-1,-1,-1,-1],"loss_changes":[2.2366714E1,7.191292E0,4.7789707E0,7.817688E-1,5.540339E0,0E0,1.736741E-1,0E0,0E0,0E0,3.5176325E0,0E0,0E0,1.2904513E0,4.4945717E-2,0E0,0E0,0E0,0E0],"parents":[2147483647,0,0,1,1,2,2,3,3,4,4,6,6,10,10,13,13,14,14],"right_children":[2,4,6,-1,10,-1,-1,-1,-1,-1,14,-1,-1,16,-1,-1,-1,-1,-1],"split_conditions":[5E-1,6.65E1,5.05E1,-1.2066986E-2,5E-1,-6.716816E-3,1.1014772E-2,-1.2241489E-2,-3.4393345E-3,7.723949E-3,5E-1,3.0746774E-3,1.2072003E-2,5E-1,-9.307342E-3,6.0405997E-3,-3.1048986E-3,-5.4126116E-3,-1.0422528E-2],"split_indices":[14,0,0,16,8,0,9,2147483647,2147483647,0,4,2147483647,2147483647,9,0,0,0,2147483647,2147483647],"split_type":[0,0,0,0,0,0,0,0,0,0,0,0,0,0,0,0,0,0,0],"sum_hessian":[1.0523378E2,9.849547E1,6.7383156E0,7.889026E1,1.9605207E1,1.2477694E0,5.490546E0,7.691569E1,1.9745705E0,2.1843805E0,1.7420828E1,1.1044052E0,4.3861413E0,4.3975844E0,1.3023243E1,1.6307263E0,2.7668579E0,4.201892E0,8.821352E0],"tree_param":{"num_deleted":"6","num_feature":"21","num_nodes":"19","size_leaf_vector":"0"}},{"base_weights":[-9.073712E-1,-1.0469011E0,8.2328296E-1,-1.2110885E0,-2.2696324E-1,-1.7279212E-1,1.1091969E0,-7.775811E-1,-1.2841933E0,8.703032E-1,-6.9295776E-1,-1.0068847E0,-8.319816E-2,1.0056427E0,2.699717E-1,2.848881E-1,-9.722175E-1,5.3127533E-1,-5.386496E-1,1.276255E-2,4.1400272E-1],"categories":[],"categories_nodes":[],"categories_segments":[],"categories_sizes":[],"default_left":[1,1,1,1,1,0,0,1,0,1,1,0,1,1,1,1,0,0,0,1,1],"id":57,"left_children":[1,3,5,7,9,-1,-1,11,-1,-1,15,-1,17,-1,-1,-1,-1,-1,-1,-1,-1],"loss_changes":[2.6365318E1,1.2941704E1,2.5951262E0,1.5863419E0,9.607252E0,0E0,0E0,2.1938963E0,0E0,1.9101667E-1,3.8042817E0,0E0,1.5850713E0,0E0,0E0,1.22709036E-1,0E0,0E0,0E0,0E0,0E0],"parents":[2147483647,0,0,1,1,2,2,3,3,4,4,7,7,9,9,10,10,12,12,15,15],"right_children":[2,4,6,8,10,-1,-1,12,-1,-1,16,-1,18,-1,-1,-1,-1,-1,-1,-1,-1],"split_conditions":[5E-1,7.25E1,5.05E1,5E-1,5E-1,-1.7279212E-3,1.1091969E-2,5.95E1,-1.28419325E-2,8.703032E-3,8.15E1,-1.0068847E-2,6.45E1,1.0056427E-2,2.699717E-3,2.8488808E-3,-9.722175E-3,5.3127534E-3,-5.386496E-3,1.276255E-4,4.140027E-3],"split_indices":[14,0,0,1,9,0,0,0,0,1,0,0,0,2147483647,2147483647,4,0,0,0,2147483647,2147483647],"split_type":[0,0,0,0,0,0,0,0,0,0,0,0,0,0,0,0,0,0,0,0,0],"sum_hessian":[1.0461382E2,9.7174446E1,7.439376E0,8.05648E1,1.660965E1,1.747397E0,5.691979E0,1.3304753E1,6.726005E1,4.6925607E0,1.1917089E1,9.663551E0,3.641202E0,3.278342E0,1.4142187E0,2.6428444E0,9.274244E0,1.4791381E0,2.1620638E0,1.2040346E0,1.4388099E0],"tree_param":{"num_deleted":"4","num_feature":"21","num_nodes":"21","size_leaf_vector":"0"}},{"base_weights":[-8.842854E-1,-1.0344293E0,8.604831E-1,-1.1826721E0,-4.2022794E-1,-1.716946E-1,1.1309998E0,-7.520671E-1,-1.2369959E0,1.166332E0,-5.998518E-1,2.9633227E-1,1.230559E0,-8.279264E-1,-1.1872093E-1,1.9096304E-1,-9.8751175E-1,5.653433E-1,-6.581793E-1],"categories":[],"categories_nodes":[],"categories_segments":[],"categories_sizes":[],"default_left":[1,1,1,1,1,0,1,1,1,0,1,1,1,1,1,1,0,0,0],"id":58,"left_children":[1,3,5,-1,9,-1,-1,-1,-1,-1,15,-1,-1,-1,-1,17,-1,-1,-1],"loss_changes":[2.9003944E1,8.54155E0,2.7209458E0,9.2742157E-1,6.6421595E0,0E0,2.4212837E-1,4.5170546E-1,0E0,0E0,6.133477E0,0E0,0E0,0E0,0E0,2.6663687E0,0E0,0E0,0E0],"parents":[2147483647,0,0,1,1,2,2,3,3,4,4,6,6,7,7,10,10,15,15],"right_children":[2,4,6,-1,10,-1,-1,-1,-1,-1,16,-1,-1,-1,-1,18,-1,-1,-1],"split_conditions":[5E-1,6.65E1,5.2E1,-1.1826721E-2,5E-1,-1.716946E-3,1.1309998E-2,-7.5206705E-3,-1.2369959E-2,1.166332E-2,5E-1,2.9633227E-3,1.2305589E-2,-8.279264E-3,-1.1872093E-3,8.15E1,-9.875117E-3,5.653433E-3,-6.5817926E-3],"split_indices":[14,0,0,4,5,0,9,2147483647,2147483647,0,1,2147483647,2147483647,2147483647,2147483647,0,0,0,0],"split_type":[0,0,0,0,0,0,0,0,0,0,0,0,0,0,0,0,0,0,0],"sum_hessian":[1.0631844E2,9.8269135E1,8.049308E0,7.841698E1,1.9852161E1,1.7473737E0,6.301934E0,1.0447505E1,6.796947E1,1.4603312E0,1.839183E1,1.095352E0,5.2065816E0,9.055637E0,1.391868E0,6.2169113E0,1.2174919E1,4.546579E0,1.6703328E0],"tree_param":{"num_deleted":"6","num_feature":"21","num_nodes":"19","size_leaf_vector":"0"}},{"base_weights":[-9.177608E-1,-9.029148E-2,-1.1337991E0,-8.401738E-1,5.254354E-1,-1.1735193E0,5.693702E-1,3.9410684E-2,-9.5393467E-1,-1.9054134E-1,7.3715097E-1,-6.047037E-1,-1.2223828E0,-1.0401349E0,-3.413954E-1,-1.059934E0,6.110569E-1,8.849994E-1,9.5337756E-2,1.8223695E-2,-7.99005E-1,-9.641768E-1,-1.13646016E-1],"categories":[],"categories_nodes":[],"categories_segments":[],"categories_sizes":[],"default_left":[1,1,1,1,1,1,0,0,1,1,1,1,0,1,1,0,0,1,1,0,1,1,1],"id":59,"left_children":[1,3,5,7,9,11,-1,-1,-1,15,-1,19,-1,-1,-1,-1,-1,-1,-1,-1,-1,-1,-1],"loss_changes":[1.8639084E1,1.0964736E1,6.2863464E0,1.1043525E0,2.1308093E0,1.5255356E0,0E0,0E0,1.454401E-1,3.2897766E0,8.967242E-1,1.0342653E0,0E0,0E0,0E0,0E0,0E0,0E0,0E0,0E0,6.199055E-1,0E0,0E0],"parents":[2147483647,0,0,1,1,2,2,3,3,4,4,5,5,8,8,9,9,10,10,11,11,20,20],"right_children":[2,4,6,8,10,12,-1,-1,-1,16,-1,20,-1,-1,-1,-1,-1,-1,-1,-1,-1,-1,-1],"split_conditions":[5E-1,5.25E1,5E-1,5E-1,5E-1,5E-1,5.693702E-3,3.9410684E-4,-9.539346E-3,7.45E1,7.3715094E-3,4.05E1,-1.2223828E-2,-1.0401349E-2,-3.413954E-3,-1.059934E-2,6.110569E-3,8.849993E-3,9.533775E-4,1.8223695E-4,-7.990049E-3,-9.6417675E-3,-1.1364601E-3],"split_indices":[1,0,14,5,2,2,0,0,6,0,0,0,0,2147483647,2147483647,0,0,2147483647,2147483647,0,0,2147483647,2147483647],"split_type":[0,0,0,0,0,0,0,0,0,0,0,0,0,0,0,0,0,0,0,0,0,0,0],"sum_hessian":[1.03838524E2,2.179134E1,8.204719E1,9.660938E0,1.2130401E1,8.048123E1,1.5659527E0,1.1812477E0,8.479691E0,2.791194E0,9.339207E0,7.424826E0,7.3056404E1,6.8216376E0,1.6580532E0,1.1843754E0,1.6068187E0,7.2826643E0,2.0565426E0,1.9807563E0,5.44407E0,4.059024E0,1.3850462E0],"tree_param":{"num_deleted":"6","num_feature":"21","num_nodes":"23","size_leaf_vector":"0"}},{"base_weights":[-8.888869E-1,-1.0204121E0,8.07223E-1,-1.151847E0,-3.3189318E-1,-1.6732605E-1,1.089794E0,-1.1799452E0,-6.2271506E-1,6.159101E-1,-8.0663854E-1,2.8215545E-1,1.1969123E0,-2.1097416E-1,-7.317488E-1,-1.5442928E-2,7.9917246E-1,-9.88271E-1,4.762497E-1,-2.041139E-1,-1.0857744E0],"categories":[],"categories_nodes":[],"categories_segments":[],"categories_sizes":[],"default_left":[1,1,1,1,1,0,1,1,1,1,1,1,1,1,1,1,1,1,0,1,1],"id":60,"left_children":[1,3,5,-1,9,-1,-1,-1,-1,-1,17,-1,-1,-1,-1,-1,-1,-1,-1,-1,-1],"loss_changes":[2.5021156E1,8.767242E0,2.4857001E0,5.2145386E-1,8.421356E0,0E0,2.34766E-1,0E0,1.3195634E-1,7.579894E-1,3.305738E0,0E0,0E0,0E0,0E0,0E0,0E0,6.181307E-1,0E0,0E0,0E0],"parents":[2147483647,0,0,1,1,2,2,3,3,4,4,6,6,8,8,9,9,10,10,17,17],"right_children":[2,4,6,-1,10,-1,-1,-1,-1,-1,18,-1,-1,-1,-1,-1,-1,-1,-1,-1,-1],"split_conditions":[5E-1,7.25E1,5.2E1,-1.151847E-2,8.15E1,-1.6732605E-3,1.089794E-2,-1.1799452E-2,-6.2271506E-3,6.159101E-3,5E-1,2.8215544E-3,1.1969123E-2,-2.1097416E-3,-7.317488E-3,-1.5442928E-4,7.991725E-3,-9.88271E-3,4.762497E-3,-2.041139E-3,-1.0857744E-2],"split_indices":[14,0,0,10,0,0,2,2147483647,2147483647,7,12,2147483647,2147483647,2147483647,2147483647,2147483647,2147483647,1,0,2147483647,2147483647],"split_type":[0,0,0,0,0,0,0,0,0,0,0,0,0,0,0,0,0,0,0,0,0],"sum_hessian":[1.0746931E2,1.0010503E2,7.364282E0,8.349358E1,1.6611448E1,